tree
version=v4
num_class=1
num_tree_per_iteration=1
label_index=0
max_feature_idx=8
objective=lambdarank
feature_names=user_pref_match user_total_seconds user_avg_click user_pref_score latitude longitude review_count stars venue_cat_count
feature_infos=[0.00020000000000000001:0.99970000000000003] [52:1200] [0:1] [0.001:9.9949999999999992] [40.500059999999998:40.949979999999996] [-74.249679999999998:-73.700019999999995] [0:1500] [1:5] [1:5]
tree_sizes=3377 3362 3367 3375 3341 3372 3378 3363 3387 3388 3379 3390 3377 3381 3414 3417 3424 3397 3425 3430 3428 3443 3432 3434 3423 3428 3424 3432 3434 3436 3423 3425 3432 3426 3437 3450 3435 3431 3426 3449 3426 3442 3445 3441 3429 3434 3449 3442 3451 3432 3445 3433 3432 3435 3452 3447 3448 3454 3462 3447 3462 3466 3461 3468 3464 3472 3461 3474 3464 3469 3485 3473 3497 3486 3487 3470 3481 3495 3486 3499 3484 3496 3493 3496 3487 3494 3497 3475 3502 3504 3518 3518 3506 3488 3520 3528 3499 3494 3519 3506 3510 3514 3508 3512 3530 3525 3518 3518 3523 3518 3508 3505 3515 3510 3495 3506 3505 3495 3518 3523 3508 3514 3519 3519 3516 3513 3528 3516 3529 3523 3528 3529 3532 3533 3527 3539 3519 3530 3542 3538 3538 3542 3532 3546 3538 3531 3543 3554 3552 3532 3559 3563 3563 3549 3549 3560 3549 3561 3572 3557 3562 3574 3564 3566 3558 3568 3566 3579 3544 3576 3564 3571 3566 3591 3581 3579 3584 3586 3572 3584 3595 3567 3574 3581 3576 3595 3585 3575 3585 3607 3590 3589 3593 3583 3604 3601 3594 3608 3594 3589

Tree=0
num_leaves=31
num_cat=0
split_feature=0 6 6 6 0 2 7 5 6 5 4 0 3 3 6 3 2 5 1 8 3 0 5 6 6 4 5 6 5 3
split_gain=2.34195 3.40582 2.0166 3.51221 2.23475 2.2836 1.52377 1.51244 1.57013 1.4178 1.3684 1.36139 1.32764 1.26186 1.91233 1.30619 1.25805 1.25698 1.59618 1.34663 1.33699 1.20623 1.57533 1.93208 1.26715 2.58025 1.75852 1.55289 1.81895 1.40724
threshold=0.72770000000000012 758.50000000000011 1247.5000000000002 1483.5000000000002 0.65215000000000012 0.96950000000000014 1.5500000000000003 -73.998919999999984 1368.5000000000002 -73.89458999999998 40.937435000000008 0.60725000000000007 3.7235000000000005 7.8665000000000012 941.50000000000011 8.1440000000000019 0.61950000000000005 -73.953129999999987 1071.5000000000002 4.5000000000000009 3.1980000000000008 0.57905000000000006 -74.060289999999995 180.50000000000003 1024.5000000000002 40.592945000000007 -73.792954999999992 938.00000000000011 -73.704619999999991 5.2285000000000013
decision_type=2 2 2 2 2 2 2 2 2 2 2 2 2 2 2 2 2 2 2 2 2 2 2 2 2 2 2 2 2 2
left_child=2 -2 4 7 5 10 -3 -4 11 -10 21 -9 -8 14 -14 -15 -17 18 19 20 -6 24 -23 -24 27 26 -26 -1 -29 -27
right_child=1 6 3 -5 17 -7 12 8 9 -11 -12 -13 13 15 -16 16 -18 -19 -20 -21 -22 22 23 -25 25 29 -28 28 -30 -31
leaf_value=-0.0095399770268193643 0.048412239876942952 0.072433286067350916 0.070351143278959125 -0.067153867891048352 -0.031570146446138571 0.083471112843854459 -0.037406419637764518 0.09999999999999995 -0.057191037665695749 0.030029422262924845 0.10000000000000001 -0.034797665634946642 -0.01853759799422677 -0.084927359325364535 0.08175362665602437 -0.018107845107996744 0.0999999999999997 -0.076425861129063147 -0.082280875552246988 -0.08721726627165316 0.077958759316631987 -0.018846310248447847 -0.04591683631747568 0.099999999999999895 0.099999999999999839 -0.064886814502729317 -0.046665360688996314 0.062484477143305045 -0.10000000000000001 -0.01556268243479738
leaf_weight=20.00542133345154 5.4993174660194182 0.60089303366839875 2.1011995036678854 0.94219685939606268 0.46510131069226257 0.70011184451868658 2.7359631326980889 0.73247948248172123 0.90995798225048929 0.95482988154981263 0.29134799391613242 0.25166257470846176 0.86048427911009673 0.55703414441086341 1.0618427290464749 1.1273284099152077 0.28183159290347237 1.8077932530431997 0.6909984117373823 0.28525739960605268 0.694898440327961 1.0521568185358776 0.29988379281712585 0.931596615788294 0.5807517810317222 3.2192011039587669 0.31535631438600731 1.3730306167562956 0.19694693386554618 2.6253962216724176
leaf_count=778 314 45 116 16 21 40 92 48 28 51 31 10 36 10 86 41 20 49 10 7 47 52 13 62 29 78 7 77 1 85
internal_value=3.54686e-10 0.0187617 -0.00576275 0.0213281 -0.0102548 -0.00582445 -0.00380569 0.0381695 0.0144343 -0.0125314 -0.00784823 0.0655298 -0.0107212 0.00805458 0.0368606 -0.0201088 0.00551369 -0.0457417 -0.0197754 0.0101094 0.0340432 -0.00887508 0.0260815 0.0644671 -0.0116943 -0.0306174 0.0483859 -0.00578218 0.0421015 -0.0427304
internal_weight=54.1523 12.7247 41.4276 5.89233 35.5353 31.5912 7.22538 4.95013 2.84893 1.86479 30.8911 0.984142 6.62448 3.88852 1.92233 1.96619 1.40916 3.94405 2.13626 1.44526 1.16 30.5997 2.28364 1.23148 28.3161 6.74071 0.896108 21.5754 1.56998 5.8446
internal_count=2300 644 1656 269 1387 1253 330 253 137 79 1213 58 285 193 122 71 61 134 85 75 68 1182 127 75 1055 199 36 856 78 163
is_linear=0
shrinkage=0.05


Tree=1
num_leaves=31
num_cat=0
split_feature=6 4 6 5 4 0 0 2 0 5 0 7 6 4 1 4 5 4 1 8 5 3 3 7 6 6 8 1 0 0
split_gain=13.1211 14.3503 8.31602 9.36824 8.22647 6.07383 5.893 10.3781 7.60678 17.0354 5.7088 4.38023 4.21739 4.18259 4.14358 3.68439 4.18005 3.54446 3.43244 5.76852 4.12661 9.41417 5.37141 4.99907 6.78085 8.31796 3.70293 3.69899 3.50886 4.0056
threshold=1247.5000000000002 40.936090000000007 1368.5000000000002 -74.069674999999989 40.812405000000005 0.65710000000000013 0.57905000000000006 0.96950000000000014 0.65215000000000012 -74.060289999999995 0.35300000000000004 1.2500000000000002 206.50000000000003 40.722115000000009 594.50000000000011 40.513145000000009 -73.759529999999984 40.863075000000002 137.50000000000003 2.5000000000000004 -73.953129999999987 2.3910000000000005 0.52850000000000008 4.7500000000000009 758.50000000000011 1048.0000000000002 4.5000000000000009 76.500000000000014 0.72770000000000012 0.79275000000000018
decision_type=2 2 2 2 2 2 2 2 2 2 2 2 2 2 2 2 2 2 2 2 2 2 2 2 2 2 2 2 2 2
left_child=1 6 4 -4 -2 -3 7 15 9 -8 -6 -10 -11 -5 17 16 -1 -15 19 27 21 22 -20 24 26 -26 -23 -13 -22 -30
right_child=2 5 3 13 10 -7 8 -9 11 12 -12 18 -14 14 -16 -17 -18 -19 20 -21 28 23 -24 -25 25 -27 -28 -29 29 -31
leaf_value=0.097479965172388008 0.0814723486820913 0.086807884432849466 0.073261875325448408 -0.05601482976600617 0.09536964208168322 -0.023170735011011297 -0.046027312580659813 0.065974221674861125 0.065713374464303795 -0.0078250437071265833 -0.022792397637495104 -0.058001507650426547 0.094493153496511426 0.048932224536424151 0.09699749981508754 -0.022225458065283782 -0.057883630769625466 -0.062190729075319806 0.098239269838036797 -0.076382861098045152 -0.071694990042459092 0.097416718341334807 -0.060398708130929159 -0.062237838587462339 -0.024507362164347839 0.095383882973055736 0.01213982630238915 0.096963393823476574 0.061734983969543411 -0.022215342948000476
leaf_weight=1.330223058350384 10.376475765369834 5.7062514889985314 3.2583536189049473 5.03122611180879 1.3518906012177456 1.6095136029180137 4.0086184139363459 3.6034660935401908 2.029262685449793 1.1761770913144554 4.1912402217276394 0.64056739583611377 7.0064638219773769 1.1931747011840346 1.0634447839111087 83.989541268325411 0.64182339236140151 1.8004013090394435 0.5949367405846705 4.1654408415779471 3.0101250086445424 5.025249735452233 5.1754257075954229 1.3231203677132715 5.5561682831030339 1.9560194402001796 1.7048511896282432 0.96551928110420704 1.6213673925958563 11.491921960376201
leaf_count=26 118 37 67 51 19 20 52 38 43 16 37 5 59 28 37 1020 5 17 13 24 42 118 58 9 66 39 22 16 41 157
internal_value=2.80777e-10 -0.00573604 0.0313185 0.000523037 0.0552022 0.0626119 -0.00913714 -0.0171546 0.00336185 0.0384171 0.00602564 -0.00608066 0.0797859 -0.0255556 0.0122178 -0.0206393 0.0469152 -0.0178995 -0.0094507 -0.0453437 -0.00392048 0.010506 -0.0440428 0.0307282 0.0393649 0.00670986 0.0758146 0.0351576 -0.0230108 -0.0118355
internal_weight=182.598 154.332 28.2662 12.3466 15.9196 7.31577 147.016 89.5651 57.4512 12.1913 5.54313 45.26 8.18264 9.08825 4.05702 85.9616 1.97205 2.99358 43.2307 5.77153 37.4592 21.3358 5.77036 15.5654 14.2423 7.51219 6.7301 1.60609 16.1234 13.1133
internal_count=2300 1926 374 200 174 57 1869 1089 780 127 56 653 75 133 82 1051 31 45 610 45 565 325 71 254 245 105 140 21 240 198
is_linear=0
shrinkage=0.05


Tree=2
num_leaves=31
num_cat=0
split_feature=6 0 4 0 5 5 6 4 2 0 6 4 5 6 0 4 5 0 6 6 5 6 2 2 7 3 3 0 8 3
split_gain=7.5802 5.07926 8.53288 5.71838 10.7086 4.27488 4.52854 4.63506 4.22021 4.07588 4.01459 5.71288 4.22139 3.62564 5.73248 4.92574 4.51487 3.88453 3.52835 3.41217 3.3644 3.32994 3.9682 3.31212 3.17688 6.20234 5.40555 4.41934 4.52171 3.34843
threshold=1247.5000000000002 0.57905000000000006 40.937435000000008 0.65215000000000012 -74.060289999999995 -73.958499999999987 758.50000000000011 40.704430000000009 0.96950000000000014 0.87870000000000015 1027.5000000000002 40.592945000000007 -73.792954999999992 1368.5000000000002 0.58665000000000012 40.740220000000008 -74.069674999999989 0.99175000000000013 241.50000000000003 70.500000000000014 -74.055929999999975 947.50000000000011 0.18350000000000002 0.6585000000000002 2.8500000000000001 1.2200000000000004 0.58300000000000007 0.035350000000000006 3.5000000000000004 1.381
decision_type=2 2 2 2 2 2 2 2 2 2 2 2 2 2 2 2 2 2 2 2 2 2 2 2 2 2 2 2 2 2
left_child=1 2 8 4 -3 6 7 -5 10 -7 21 12 -12 14 -2 -16 17 -15 -6 -9 -8 24 -23 -11 26 -26 -1 -28 29 -29
right_child=13 3 -4 5 18 9 20 19 -10 23 11 -13 -14 16 15 -17 -18 -19 -20 -21 -22 22 -24 -25 25 -27 27 28 -30 -31
leaf_value=-0.068115704112080677 0.078241557712487947 -0.039062405780600822 0.089637768086786862 0.083313165338234907 -0.0038191597894934983 -0.035541289834293992 -0.027645405279211957 -0.048425058017163146 0.056806728378792352 0.064044383924311707 0.092466357494931775 -0.053005732389888066 -0.072438452830895797 0.092388487681634421 0.070055046563187659 -0.028322293459873239 -0.011531664533878277 -0.070442750712027644 0.089393861988833534 0.031335510459267094 0.04650832623216708 -0.035942747308812743 0.0823099763124229 -0.021372885796192651 0.058031272612646602 -0.027773771232268419 0.099825952769229398 0.098683807038316251 0.035396704949791656 -0.017763774268599049
leaf_weight=2.630693954415622 6.3354671224951762 2.9379820001777261 2.0218108501285306 3.5030047281179559 1.2173649538308362 11.628248871478723 7.1726214259397238 1.7038538474589584 2.0346486428752533 2.2166738403029731 1.26552905049175 12.085764224408193 0.5597346480935802 2.1175076672807331 2.0265194913372397 3.4192367717623711 8.4841333464719337 0.4428776167333125 6.1137210112065077 6.2945941733196378 1.9442378967069069 1.1084357108920806 1.9708105521276591 2.3255071686580777 2.2377492524683467 35.786778237204999 1.2272083798889095 0.64438742445782082 7.0934387082234016 14.703911154996602
leaf_count=18 94 53 28 89 19 190 103 17 39 74 29 156 7 64 39 41 133 3 59 116 46 14 62 38 44 376 25 20 126 178
internal_value=-1.37032e-10 -0.0045868 -0.0118569 0.00860239 0.0415924 -0.000606314 0.0144878 0.0353504 -0.0143189 -0.0198523 -0.0160986 -0.0405536 0.0418967 0.0266113 0.0459056 0.00828669 0.00603011 0.0642231 0.0739154 0.0143447 -0.0118316 -0.0110514 0.0397426 0.0203124 -0.013483 -0.0227241 -0.000121915 0.00743528 0.00238297 -0.0128748
internal_weight=155.254 132.429 85.3709 47.0578 10.2691 36.7887 20.6183 11.5015 83.3491 16.1704 81.3144 13.911 1.82526 22.8257 11.7812 5.44576 11.0445 2.56039 7.33109 7.99845 9.11686 67.4034 3.07925 4.54218 64.3242 38.0245 26.2996 23.6689 22.4417 15.3483
internal_count=2300 1926 1122 804 131 673 371 222 1094 302 1055 192 36 374 174 80 200 67 78 133 149 863 76 112 787 420 367 349 324 198
is_linear=0
shrinkage=0.05


Tree=3
num_leaves=31
num_cat=0
split_feature=6 0 4 0 5 6 2 0 0 6 7 5 4 2 0 0 0 7 4 4 4 6 6 4 4 0 6 2 2 4
split_gain=8.47591 4.92631 7.72158 5.72847 7.10041 4.12471 3.65364 3.6042 3.3103 3.20778 4.15993 3.59203 4.6074 4.19958 3.04777 3.04542 3.54205 2.92487 2.93894 2.83763 2.81995 2.69713 4.07528 3.95828 3.0136 2.51536 3.08525 2.35676 2.92438 2.86798
threshold=1247.5000000000002 0.57905000000000006 40.937435000000008 0.65215000000000012 -74.060289999999995 241.50000000000003 0.96950000000000014 0.96070000000000011 0.15890000000000001 892.50000000000011 1.5500000000000003 -73.953129999999987 40.673165000000004 0.50750000000000017 0.17250000000000001 0.72770000000000012 0.79275000000000018 4.7500000000000009 40.708045000000006 40.825690000000002 40.513145000000009 1027.5000000000002 947.50000000000011 40.592945000000007 40.695205000000009 0.83045000000000002 115.50000000000001 0.96450000000000002 0.58850000000000013 40.812405000000005
decision_type=2 2 2 2 2 2 2 2 2 2 2 2 2 2 2 2 2 2 2 2 2 2 2 2 2 2 2 2 2 2
left_child=1 2 6 4 19 -6 20 9 -2 11 -11 12 -5 25 -10 -13 -17 18 -15 -3 -1 22 -22 -23 -24 -14 -27 28 29 -16
right_child=8 3 -4 7 5 -7 -8 -9 14 10 -12 15 13 17 27 16 -18 -19 -20 -21 21 23 24 -25 -26 26 -28 -29 -30 -31
leaf_value=0.049138513823940952 0.072860544055238161 -0.058685173126997663 0.08514185417931662 0.071706957661274037 -0.022962541837895822 0.08543178935716661 0.056892345769779619 0.053423774105209737 -0.093059090882273141 0.092494303200884476 -0.037651544983220403 -0.07000291690130564 -0.050446023961546821 -0.02797889695503953 0.032343248460217307 0.094877732373991899 -0.017026190118447641 -0.062276352822968097 0.092297713818992155 0.059074991924313341 -0.020009971293093749 0.043284351929109587 -0.0094753227134405527 -0.055572279337880295 0.092381933472217931 -0.065929367314119802 0.092043042264847622 -0.056084149977785949 0.053576886845507932 -0.022112429665166682
leaf_weight=1.4570900350809086 3.5176419804338392 1.9479464417090642 1.8841750472784031 3.3794468753039846 1.035914184525607 5.7445446215569973 1.6034637503325928 2.658588563092052 0.5783881694078471 0.65462335199117561 9.8930365130072442 2.2600877783261275 3.4500005575828236 0.65923869796097356 6.1306738541461581 0.81628973223268975 5.2882677558809519 0.53875005058944214 2.21222611842677 0.6937547051347791 45.870104683795944 1.1391894575208414 1.4636895209550851 9.1119556454941613 1.4411831074394283 0.50336924102157332 0.80075865099206567 0.88189504481851955 6.634527842514216 3.9924033656716347
leaf_count=31 65 26 28 80 19 59 39 73 2 23 171 33 39 10 104 27 107 5 70 27 765 31 26 156 46 6 29 11 126 66
internal_value=3.29974e-10 -0.00580685 -0.0145755 0.00738023 0.0417789 0.0688714 -0.0176017 -0.00240726 0.0284545 -0.00728089 -0.0295743 0.00453032 0.0226092 0.00228627 0.0198803 -0.0204198 -0.00206261 0.0446269 0.0646843 -0.0277594 -0.0195766 -0.0212728 -0.0163729 -0.0445865 0.0410587 -0.0280854 0.0310686 0.0235835 0.0277761 0.0108667
internal_weight=128.243 106.508 63.9709 42.5368 9.42216 6.78046 62.0867 33.1147 21.7355 30.4561 10.5477 19.9084 11.5438 8.16434 18.2179 8.36465 6.10456 3.41021 2.87146 2.6417 60.4832 59.0261 48.775 10.2511 2.90487 4.75413 1.30413 17.6395 16.7576 10.1231
internal_count=2300 1926 1122 804 131 78 1094 673 374 600 194 406 239 159 309 167 134 85 80 53 1055 1024 837 187 72 74 35 307 296 170
is_linear=0
shrinkage=0.05


Tree=4
num_leaves=31
num_cat=0
split_feature=6 0 4 0 5 6 0 6 5 4 7 2 4 2 7 0 4 4 4 0 4 3 3 4 0 6 4 5 6 2
split_gain=4.62392 5.39313 6.03097 3.92508 4.48898 4.62833 3.69409 3.4731 3.94743 4.03456 3.83897 3.1335 2.70671 2.66936 2.65409 2.58636 2.84483 3.06302 2.72795 2.58207 2.54666 2.40041 3.08538 2.7702 3.25129 2.36207 3.47425 3.56974 3.18699 2.81997
threshold=1247.5000000000002 0.57905000000000006 40.937435000000008 0.65215000000000012 -74.060289999999995 180.50000000000003 0.15890000000000001 892.50000000000011 -73.953129999999987 40.673165000000004 1.5500000000000003 0.50750000000000017 40.825690000000002 0.96950000000000014 4.7500000000000009 0.72770000000000012 40.782650000000011 40.637040000000006 40.612505000000006 0.83045000000000002 40.708045000000006 1.0275000000000001 3.786 40.91960000000001 0.18525000000000003 1027.5000000000002 40.592945000000007 -73.792954999999992 947.50000000000011 0.31850000000000006
decision_type=2 2 2 2 2 2 2 2 2 2 2 2 2 2 2 2 2 2 2 2 2 2 2 2 2 2 2 2 2 2
left_child=1 2 13 4 12 -6 -2 8 9 -5 -9 19 -3 25 20 -10 17 18 -17 -11 -13 -8 -23 24 -24 28 27 -27 -1 -30
right_child=6 3 -4 7 5 -7 21 10 15 11 -12 14 -14 -15 -16 16 -18 -19 -20 -21 -22 22 23 -25 -26 26 -28 -29 29 -31
leaf_value=-0.017070612979115964 0.0695598336906324 -0.056707836522781011 0.081495920699449775 0.071562667542680869 -0.043343626408744181 0.081985458964159943 0.087236780714257403 0.08760066267866673 -0.065227261388263638 -0.046902202042791691 -0.031913414014462252 -0.03022554149663614 0.057570753587861491 0.050199689050948959 -0.061774378758392416 0.053523707438662339 -0.02894677832820285 0.092838626119542411 -0.073846609054855808 0.030626342456557844 0.086796177545163986 -0.021578229569115575 -0.071298115367578213 -0.042083956632940893 0.046649893087848851 0.085138173911360415 -0.055301544550914329 -0.075232558421876761 -0.012573428639688048 0.08777759412036118
leaf_weight=44.030334607698023 3.4218043745495406 1.539402326801792 1.6115681920200575 4.163287225179376 0.86183834169059803 5.0713280960917473 0.99856083793565531 0.72659384645521541 1.84465203958098 2.7500664663966745 8.92929864884354 0.57611800357699472 0.78103243280202139 1.458556537516414 0.48613281548023213 0.87049299292266391 3.50061757536605 1.3632952873595057 0.81298424350097775 1.7620690353214739 2.4087505382485688 5.7185424086637786 0.63719514012336542 1.2997325318865476 7.0346354497596622 0.96917345095425844 7.6233456321060658 0.54052359634078839 1.3907963177189224 1.4096077084541319
leaf_count=787 65 26 28 95 13 65 28 27 33 39 183 11 27 39 5 34 62 57 8 45 74 87 4 19 171 29 156 7 28 48
internal_value=1.06738e-10 -0.00440873 -0.0138998 0.0101641 0.0407202 0.0637804 0.0224888 0.00181155 0.0134388 0.031659 -0.0229201 0.0108489 -0.0182429 -0.0165771 0.0465647 -0.0129326 0.00180083 0.0371286 -0.00798592 -0.0166259 0.0642095 0.0122223 0.00712318 0.0254177 0.0368535 -0.0183175 -0.041578 0.0277199 -0.0137811 0.0379391
internal_weight=116.592 97.4819 59.0339 38.448 8.2536 5.93317 19.1105 30.1944 20.5385 12.1464 9.65589 7.98314 2.32043 57.4223 3.471 8.39204 6.54739 3.04677 1.68348 4.51214 2.98487 15.6887 14.6901 8.97156 7.67183 55.9638 9.13304 1.5097 46.8307 2.8004
internal_count=2300 1926 1122 804 131 78 374 673 463 269 210 174 53 1094 90 194 161 99 42 84 85 309 281 194 175 1055 192 36 863 76
is_linear=0
shrinkage=0.05


Tree=5
num_leaves=31
num_cat=0
split_feature=1 0 6 6 5 4 0 5 6 5 6 4 0 5 1 7 3 1 0 2 1 2 4 0 5 7 2 6 0 3
split_gain=2.95622 2.66301 5.03164 4.025 6.43767 3.99495 2.52544 3.08851 3.17191 2.656 3.71324 2.89193 2.16525 3.90754 2.85986 2.96979 2.41104 2.37315 2.15323 2.00593 2.58976 1.99897 1.88548 1.95117 1.88459 1.87642 1.86823 5.45653 2.00447 1.84811
threshold=1133.0000000000002 0.57905000000000006 1247.5000000000002 1368.5000000000002 -74.069674999999989 40.937435000000008 0.65215000000000012 -74.060289999999995 180.50000000000003 -73.964029999999994 758.50000000000011 40.705545000000008 0.13100000000000003 -73.986194999999981 466.50000000000006 4.6500000000000012 4.988500000000001 274.50000000000006 0.87870000000000015 0.57750000000000001 728.50000000000011 0.51050000000000006 40.759730000000012 0.43635000000000007 -74.089494999999985 4.7500000000000009 0.84850000000000014 342.50000000000006 0.17250000000000001 7.2410000000000005
decision_type=2 2 2 2 2 2 2 2 2 2 2 2 2 2 2 2 2 2 2 2 2 2 2 2 2 2 2 2 2 2
left_child=1 2 5 -4 -5 12 7 -3 -9 10 11 -8 13 14 15 -1 -16 -15 -11 -20 -21 24 -6 -24 -13 -23 -14 -28 -29 -2
right_child=29 6 3 4 22 -7 9 8 -10 18 -12 21 26 17 16 -17 -18 -19 19 20 -22 25 23 -25 -26 -27 27 28 -30 -31
leaf_value=0.097534491568797427 0.019350787974534406 -0.012802036613818419 0.064561197367942524 0.082086733307137505 -0.055661185543474836 0.078136456872598362 0.074073717297561653 -0.050462801497978431 0.07218297193937831 -0.025380694467156933 -0.0082303661447430398 0.030965376544939527 -0.025466827161096602 -0.0079067698820770287 -0.068203389948537835 -0.059055011232322679 0.012009265120432201 0.070098751280210966 0.050548103645167687 -0.043381369971645621 0.092152916438916266 0.066918180652536824 0.091056783633504237 -0.047229255361693256 -0.051380129796883528 -0.051612502490409766 -0.053357069505881219 -0.050316352523855801 0.060954150234959564 0.088266992447067552
leaf_weight=0.85144008230417945 3.7095781837124369 2.3035015116911381 3.8616856122389418 1.6316619878634808 2.9979792106896639 1.1440963130444277 3.4599679661914724 0.60000071488320728 4.3434444274753332 10.508650550036693 8.2464912494178844 1.2810030141845348 36.224317408225033 1.543556219432501 2.9002635143697262 0.46989146992564201 1.3838181928731499 2.647158877691254 2.1674603358842424 1.8043304020538928 0.43801425211131562 2.0845579486340289 0.51846572291105963 0.50212139915674925 1.5184387373737989 0.3975746976211666 2.3540843222290269 0.46940255723893676 2.9382992299506441 1.3185890137683598
leaf_count=33 95 57 89 40 40 24 86 12 71 235 205 35 658 27 33 4 34 103 77 36 17 59 24 10 24 5 25 6 97 39
internal_value=-2.02324e-10 -0.00185223 -0.00826266 0.0252186 -0.00167042 -0.0142799 0.00837053 0.0350155 0.0572971 0.00231863 0.0158373 0.038542 -0.0163218 0.0048452 -0.0224593 0.0418482 -0.0422936 0.0413672 -0.0130755 0.0162481 -0.0169064 0.0152652 -0.0356784 0.0230211 -0.0136995 0.0479326 -0.0212604 0.00518517 0.0456269 0.0374234
internal_weight=106.62 101.592 62.4382 9.51191 5.65023 52.9263 39.1534 7.24695 4.94345 31.9065 16.988 8.74154 51.7822 9.79613 5.60541 1.32133 4.28408 4.19072 14.9185 4.4098 2.24234 5.28157 4.01857 1.02059 2.79944 2.48213 41.9861 5.76179 3.4077 5.02817
internal_count=2300 2166 1247 203 114 1044 919 140 83 779 414 209 1020 234 104 37 67 130 365 130 53 123 74 34 59 64 786 128 103 134
is_linear=0
shrinkage=0.05


Tree=6
num_leaves=31
num_cat=0
split_feature=6 0 4 6 7 0 2 7 0 2 3 5 4 5 4 6 4 0 4 2 5 5 0 0 6 3 6 8 6 7
split_gain=2.70012 3.3717 4.12182 2.93967 3.70063 2.26721 2.17274 2.00772 2.35049 2.05438 1.66166 1.71247 1.80917 1.76466 1.6337 3.15513 1.60239 2.46778 2.24039 1.78733 2.23345 3.27855 2.36568 2.16145 1.82532 1.50961 2.41638 1.43577 1.41456 1.39929
threshold=1276.5000000000002 0.57905000000000006 40.937435000000008 906.50000000000011 1.5500000000000003 0.15890000000000001 0.083500000000000019 2.8500000000000001 0.035350000000000006 0.96950000000000014 1.0275000000000001 -74.175774999999987 40.601430000000008 -73.782399999999981 40.855585000000012 1003.5000000000001 40.531630000000007 0.62135000000000018 40.585660000000011 0.19150000000000003 -73.768034999999983 -73.941264999999987 0.63475000000000004 0.65215000000000012 678.50000000000011 1.2200000000000004 775.50000000000011 2.5000000000000004 1239.0000000000002 4.7500000000000009
decision_type=2 2 2 2 2 2 2 2 2 2 2 2 2 2 2 2 2 2 2 2 2 2 2 2 2 2 2 2 2 2
left_child=1 2 7 16 -5 -2 -6 8 -1 28 -7 -12 -13 -14 -8 -16 -3 -18 -19 -20 21 22 -21 -23 -25 26 -9 -28 -10 -24
right_child=5 3 -4 4 6 10 14 25 9 -11 11 12 13 -15 15 -17 17 18 19 20 -22 23 29 24 -26 -27 27 -29 -30 -31
leaf_value=0.088976964878308279 0.062442350557308138 -0.019812874789607915 0.076054303938536655 0.081301796663590026 0.083442181088276668 0.080692856724836448 -0.035333951583503879 0.09485286085235263 -0.01048966764574796 0.079777780818063249 0.058491981692562173 0.047823631416458692 -0.020766908957683506 0.057925249578189425 -0.05323445152020332 0.091321901214954149 0.07975751679467602 0.084670418041920006 -0.015760632289849249 -0.067946627812564581 0.086655317364212128 0.076428935437205428 0.048347325270232777 -0.049573071536396583 0.046181610439537661 -0.026137433921651101 -0.064006497433007542 0.034419490619011485 0.08116015506791617 -0.029002071782270683
leaf_weight=0.68526530917734163 2.6134045023936769 2.3718427082058069 1.3018740518018592 0.96267872676253219 0.47196397301740844 0.78765427228063245 8.1084154685959202 0.68633810896426739 18.229753329302191 0.68522023595869441 1.3221679585985828 1.4934203494340161 6.7219674624502623 0.79688241798431025 0.73219967214390524 0.77913928043562919 1.7854535523802066 1.1868621490430111 3.977844147244471 0.52599445730448291 1.228709486313156 0.50675648590549727 6.854027689434588 3.025632750242949 0.59567164117470373 25.798642946116161 0.80181142780929782 0.68880939576774836 0.43096989253535767 0.63923156214877952
leaf_count=32 60 48 29 33 14 23 168 30 457 21 40 42 134 31 9 35 43 51 87 6 45 9 185 52 28 533 11 20 11 13
internal_value=3.00429e-10 -0.0033959 -0.0117305 0.0087801 -0.0123642 0.0205356 -0.0212993 -0.0141111 -0.00202725 -0.00525077 0.0106887 0.00535318 -0.00244268 -0.0124268 -0.0264381 0.0212886 0.0190778 0.0236159 0.0182095 0.0136642 0.0224147 0.0159167 0.0345538 -0.020288 -0.0338223 -0.0227635 0.0172206 -0.0185243 -0.00837301 0.0417488
internal_weight=96.7966 83.0611 49.3087 33.7524 11.0544 13.7355 10.0917 48.0068 20.0312 19.3459 11.1221 10.3344 9.01227 7.51885 9.61975 1.51134 22.698 20.3262 18.5407 17.3539 13.376 12.1473 8.01925 4.12806 3.6213 27.9756 2.17696 1.49062 18.6607 7.49326
internal_count=2300 1970 1144 826 259 330 226 1115 521 489 270 247 207 165 212 44 567 519 476 425 338 293 204 89 80 594 61 31 468 198
is_linear=0
shrinkage=0.05


Tree=7
num_leaves=31
num_cat=0
split_feature=0 6 4 6 7 2 6 5 4 0 7 7 4 0 0 4 0 4 0 2 2 5 1 4 1 4 1 1 0 4
split_gain=1.9279 5.13193 3.87298 2.62606 3.54153 2.29165 2.13373 5.02396 1.69886 1.6958 2.52845 1.52775 1.64733 1.50688 1.39388 1.2349 2.22312 2.28865 1.48036 1.38018 1.72858 1.2657 1.21057 1.20109 1.13829 1.11113 1.0481 2.05934 1.3728 1.02678
threshold=0.57905000000000006 1247.5000000000002 40.937435000000008 892.50000000000011 1.5500000000000003 0.96950000000000014 1368.5000000000002 -74.069674999999989 40.759730000000012 0.65215000000000012 2.7500000000000004 3.1500000000000008 40.583415000000009 0.61785000000000012 0.43635000000000007 40.531630000000007 0.62135000000000018 40.607380000000006 0.8479000000000001 0.6585000000000002 0.86850000000000016 -73.831614999999985 471.50000000000006 40.860685000000004 440.50000000000006 40.552070000000008 876.50000000000011 638.00000000000011 0.66425000000000012 40.634465000000013
decision_type=2 2 2 2 2 2 2 2 2 2 2 2 2 2 2 2 2 2 2 2 2 2 2 2 2 2 2 2 2 2
left_child=1 2 5 15 -5 -1 23 -8 -9 13 -11 25 -13 -6 -10 -2 -17 -18 19 26 21 -21 -22 -3 -20 -12 27 28 -19 -26
right_child=3 6 -4 4 9 -7 7 8 14 10 11 12 -14 -15 -16 16 17 18 24 20 22 -23 -24 -25 29 -27 -28 -29 -30 -31
leaf_value=-0.016979373726692806 -0.016200150559071886 0.077190442400918366 0.073688389044095359 0.066470223096391765 -0.0065762791889589379 0.053343648656926493 0.077265978677107119 -0.046890631700504053 0.085028541563714324 -0.047813544927956558 -0.064364384008478256 0.089070178728882343 -0.017163831754813102 0.078206184479574989 -0.038208394730924466 0.078682149835282725 0.063553566303351627 0.079220636712427128 0.070632869436330667 0.080205120563333746 -0.058133945222996634 -0.0084026921349759105 0.029345024391041016 0.0041821174826306958 -0.057133177773703914 0.091474454267840774 -0.046769358395918344 0.08817645874783453 -0.023363675669395373 0.028060803150764358
leaf_weight=43.245403824024834 2.076715077157135 2.5657781148329364 1.2632542829960574 1.4986143903806795 1.373402647674083 1.1903792014345516 1.8118043821305034 2.5201228414662187 0.53318567434325803 5.2455678341211733 0.13889775797724713 0.39061446534469713 5.5467730374075472 0.84749551443383087 0.40277457842603326 1.7162537041585917 2.470090132905173 0.35901240399107193 1.477635524701326 1.4578450710978361 0.78606394014786907 0.5570046836510304 0.79590918170288205 0.72182013513520349 0.39999310299754176 0.6480014396365732 1.7459645951166747 0.56453737104311574 3.5602053094189614 3.0539104281924665
leaf_count=1055 47 76 28 57 29 39 42 41 26 100 2 20 142 23 10 43 73 9 59 52 10 9 22 17 5 37 32 25 77 93
internal_value=1.23755e-10 -0.00598759 -0.0126413 0.00884907 -0.00663027 -0.0150955 0.0295529 0.00982696 -0.025527 -0.01435 -0.0217952 -0.00149849 -0.0101748 0.0257767 0.0319956 0.0204023 0.0244147 0.0190086 0.011553 0.000334629 0.0249957 0.0557095 -0.0141223 0.0611608 0.0339066 0.0639669 -0.0139038 -0.00110608 -0.0139666 0.0181946
internal_weight=90.965 54.2545 45.699 36.7105 15.6894 44.4358 8.55549 5.26789 3.45608 14.1908 11.9699 6.72429 5.93739 2.2209 0.93596 21.0211 18.9444 17.2282 14.7581 9.82654 3.59682 2.01485 1.58197 3.2876 4.93154 0.786899 6.22972 4.48376 3.91922 3.4539
internal_count=2300 1334 1122 966 410 1094 212 119 77 353 301 201 162 52 36 556 509 466 393 236 93 61 32 93 157 39 143 111 86 98
is_linear=0
shrinkage=0.05


Tree=8
num_leaves=31
num_cat=0
split_feature=6 0 4 6 7 2 0 6 4 0 4 4 5 4 6 3 1 2 0 6 0 6 3 7 6 6 4 0 5 1
split_gain=1.94498 2.9703 3.33088 1.94749 2.47626 1.71223 1.65477 2.11658 1.60034 1.89867 2.02114 1.56297 1.97676 1.43379 2.61697 1.38215 1.32402 1.23665 2.49069 1.83047 1.55534 1.9562 1.68766 1.70587 1.27655 1.32361 1.83161 1.38437 2.43794 1.59146
threshold=1276.5000000000002 0.57905000000000006 40.937435000000008 906.50000000000011 1.5500000000000003 0.083500000000000019 0.43635000000000007 1483.5000000000002 40.531630000000007 0.62135000000000018 40.585660000000011 40.641675000000006 -74.175774999999987 40.855585000000012 1003.5000000000001 9.2925000000000022 321.50000000000006 0.84850000000000014 0.42460000000000003 1247.5000000000002 0.093550000000000008 352.50000000000006 6.5330000000000004 4.1500000000000012 1027.5000000000002 947.50000000000011 40.707045000000008 0.35125000000000006 -74.206739999999982 1090.5000000000002
decision_type=2 2 2 2 2 2 2 2 2 2 2 2 2 2 2 2 2 2 2 2 2 2 2 2 2 2 2 2 2 2
left_child=1 2 17 8 -5 -6 7 -2 -3 -10 -11 16 -13 -7 -15 -12 -8 19 20 24 -19 -22 23 -23 25 27 -27 -1 -29 -30
right_child=6 3 -4 4 5 13 11 -9 9 10 15 12 -14 14 -16 -17 -18 18 -20 -21 21 22 -24 -25 -26 26 -28 28 29 -31
leaf_value=-0.0063141053293002368 0.050291599978063532 -0.024523789707863161 0.071643109753707759 0.076151386923516723 0.079743007630367416 -0.031350768539961146 -0.01859458450680743 -0.047345302797876826 0.076122710494979387 0.079026560594358738 0.0095024324316864209 0.079544867273316888 -0.021107378872214488 -0.055193596509799742 0.087143867782752321 0.080202051290574131 0.080546451564264376 0.082576648055596794 0.086461770974278124 0.074767595920618365 -0.054754141218986453 0.024421576524450664 0.087417137111301002 -0.074597849624992163 -0.03747659969019055 -0.017327336189799387 0.084873555182501739 0.097594989223044271 -0.036185950327870052 0.047366542126514734
leaf_weight=15.837240582797682 4.811218371614812 1.9897868424886898 1.1819285685196508 0.77481230860575934 0.4331821883097281 6.9138437003130075 0.50902742240577914 0.62745736353099335 1.5241307122632886 1.247164901811632 14.63535537361167 0.54367091134190459 4.7472377836238602 0.56894749682396628 0.74678743071854115 0.72556068934500295 0.99512661341577768 0.45165564119815726 0.86520549410488445 0.53938189055770536 1.8014027457684276 1.2847693986259403 0.59062046883627761 0.65757889486849297 6.8681715182028702 0.98195854760706314 0.79196123220026493 0.37274887296371062 11.868530832347457 0.59867240069434124
leaf_count=414 137 48 29 33 14 168 11 9 43 51 396 19 115 9 35 29 39 20 44 17 28 46 29 7 177 25 35 20 226 27
internal_value=9.12638e-11 -0.00304358 -0.0111766 0.00925296 -0.0094868 -0.0171464 0.0184727 0.0390273 0.0180422 0.0227133 0.0178119 0.00202106 -0.0107648 -0.0222464 0.0255946 0.0128419 0.0469957 -0.0134264 0.00839138 -0.0166832 -0.00572199 -0.014923 0.0134042 -0.00910129 -0.0180049 -0.0136131 0.0282999 -0.0162058 -0.0284065 -0.0321738
internal_weight=86.4851 74.2514 44.6918 29.5596 9.43757 8.66276 12.2337 5.43868 20.122 18.1322 16.6081 6.79506 5.29091 8.22958 1.31573 15.3609 1.50415 43.5099 5.65123 37.8587 4.78603 4.33437 2.53297 1.94235 37.3193 30.4511 1.77392 28.6772 12.84 12.4672
internal_count=2300 1970 1144 826 259 226 330 146 567 519 476 184 134 212 44 425 50 1115 174 941 130 110 82 53 924 747 60 687 273 253
is_linear=0
shrinkage=0.05


Tree=9
num_leaves=31
num_cat=0
split_feature=6 0 4 5 3 6 0 4 6 7 0 3 0 2 5 7 6 2 0 6 0 6 7 3 5 3 5 2 1 5
split_gain=1.90073 2.22188 2.964 1.60419 1.82044 1.86883 1.44684 2.09673 1.58204 2.26934 1.64924 1.55744 1.38467 1.3216 2.15544 1.29683 1.28694 1.15692 1.99997 1.70795 1.28332 1.21676 1.92884 1.24249 1.08821 2.65917 1.02594 1.16682 0.995932 1.01826
threshold=1276.5000000000002 0.57905000000000006 40.937435000000008 -73.998919999999984 1.6340000000000001 1338.5000000000002 0.65215000000000012 40.522270000000006 892.50000000000011 1.5500000000000003 0.8479000000000001 8.6805000000000003 0.92370000000000008 0.51050000000000006 -73.953129999999987 1.4500000000000002 536.50000000000011 0.84850000000000014 0.42460000000000003 1247.5000000000002 0.093550000000000008 279.50000000000006 4.1500000000000012 4.2215000000000016 -73.889634999999984 4.988500000000001 -74.060289999999995 0.58850000000000013 440.50000000000006 -73.917514999999995
decision_type=2 2 2 2 2 2 2 2 2 2 2 2 2 2 2 2 2 2 2 2 2 2 2 2 2 2 2 2 2 2
left_child=1 2 17 12 -5 -6 7 -3 10 -10 11 13 15 -8 16 -2 -15 19 20 -1 -19 -22 23 -23 -7 -26 27 -9 -12 -30
right_child=3 6 -4 4 5 24 8 26 9 -11 28 -13 -14 14 -16 -17 -18 18 -20 -21 21 22 -24 -25 25 -27 -28 -29 29 -31
leaf_value=-0.017669718771567724 -0.029589275410621198 -0.054490995786127316 0.069846698184951081 0.07733596275692188 0.049178132357137222 -0.044670982408993726 -0.030923531878771809 0.062769088460784744 0.075043267280559128 -0.02512851400284933 0.059427839479174488 0.059703460584632086 -0.021670729058517857 0.075685135196648434 -0.034665025387803951 0.060516407755724977 0.0042888404920789257 0.079064340894688556 0.081546272536164255 0.072719763146463196 -0.05561541898783693 -8.6373012462829537e-05 -0.049600243896158497 0.085076552063639954 -0.032414786996628385 0.08172580557225842 0.057792966088302346 -0.026630356764514723 0.040783602236558317 -0.0087053870159787428
leaf_weight=33.698701581335627 0.44598246598616231 0.63708946295082824 1.1116747613996256 0.72500430652871539 1.1992516554892061 2.3680538381449874 3.7915976902004349 0.59864644985645987 0.61651343340054054 6.8184495691675693 2.0681065758690229 0.90381130250170816 0.77239627111703146 1.2236493229866057 1.6461640661582322 3.816375510301441 1.3035665755160151 0.41786904784385015 0.80470827687531699 0.53084460366517205 1.1786681269295516 0.98272292502224468 1.0181444422341881 0.75911464868113399 1.6343756883870817 0.74191530793905247 3.2845235811546445 0.93510621460154653 2.1608706121332943 2.0027425785083324
leaf_count=924 12 7 29 22 39 44 90 28 29 198 80 33 18 48 41 119 35 20 44 17 18 35 17 40 37 39 77 24 75 61
internal_value=9.07265e-12 -0.00318187 -0.0106683 0.0186217 0.002537 -0.00658703 0.00765089 0.0307552 0.00205781 -0.0168222 0.0113537 -0.00249757 0.0399262 -0.00955572 0.00985737 0.0510884 0.0388581 -0.0129406 0.00912673 -0.0162679 -0.00425014 -0.0130893 0.00507169 0.0370287 -0.0206831 0.0032217 0.0420268 0.00826357 0.0310663 0.0169789
internal_weight=80.1966 68.4933 40.5024 11.7034 6.6686 5.9436 27.9908 5.45537 22.5355 7.43496 15.1005 8.86879 5.03475 7.96498 4.17338 4.26236 2.52722 39.3908 5.16123 34.2295 4.35652 3.93865 2.75998 1.74184 4.74434 2.37629 4.81828 1.53375 6.23172 4.16361
internal_count=2300 1970 1144 330 181 159 826 136 690 227 463 247 149 214 124 131 83 1115 174 941 130 110 92 75 120 76 129 52 216 136
is_linear=0
shrinkage=0.05


Tree=10
num_leaves=31
num_cat=0
split_feature=6 0 4 0 4 5 3 3 6 4 3 4 2 0 6 2 3 5 6 0 7 3 0 7 7 2 5 4 8 2
split_gain=1.73111 1.67618 2.64204 1.36929 1.87874 1.28235 1.77081 1.57102 1.4475 1.73736 1.42068 1.3409 1.25426 1.75799 1.40736 1.23354 1.22893 1.30625 1.50529 1.17368 1.12222 1.32996 1.05963 1.11828 1.0341 1.62299 1.08149 1.01898 0.987986 1.36428
threshold=1276.5000000000002 0.57905000000000006 40.937435000000008 0.65215000000000012 40.522270000000006 -73.964029999999994 2.3910000000000005 0.87300000000000011 758.50000000000011 40.712395000000008 4.1220000000000008 40.866835000000002 0.84850000000000014 0.42460000000000003 1247.5000000000002 0.091500000000000012 1.0275000000000001 -73.998919999999984 1338.5000000000002 0.92370000000000008 1.4500000000000002 1.3320000000000003 0.95155000000000012 1.6500000000000001 4.7500000000000009 0.51050000000000006 -74.089494999999985 40.874235000000006 4.5000000000000009 0.88650000000000018
decision_type=2 2 2 2 2 2 2 2 2 2 2 2 2 2 2 2 2 2 2 2 2 2 2 2 2 2 2 2 2 2
left_child=1 2 12 4 -3 6 7 -5 9 -8 -11 -10 14 28 -1 -7 -2 19 27 20 -18 -22 -17 -24 25 26 -12 -19 29 -14
right_child=16 3 -4 5 -6 15 8 -9 11 10 24 -13 13 -15 -16 22 17 18 -20 -21 21 -23 23 -25 -26 -27 -28 -29 -30 -31
leaf_value=-0.01660818021276516 0.072775019491884058 -0.058153428528437072 0.068296367219487328 0.053894122401224744 0.040335710833372743 0.083918050115956613 0.072478512043488014 -0.042852630721012863 -0.01316644314125495 0.078331463832437831 0.028291078855541191 0.085181942055545121 0.08957410426141621 0.078688046472818782 0.070621820673975391 -0.020757100022843731 -0.036785894678321322 0.075124476928039211 -0.015997923035523436 -0.025813456902031975 -0.032533121462205543 0.065711717914696016 -0.037497077109599146 0.083097068352864747 -0.080046250239077466 0.072893344251477754 -0.060557331689353511 -0.032751713459885305 -0.04881635322496089 -0.002400616319336326
leaf_weight=32.489929968782235 0.94892250886186857 0.54165271669626491 1.0567042632028449 0.52357490547001839 4.565542311174795 0.32222274737432322 2.2730229147709888 2.1132901008240879 3.0919776139780883 0.69267467316240106 0.62349391449243086 0.39033077657222737 0.4731611893512303 0.81739438651129592 0.46907268278300662 8.6075820443220401 0.3777927891351277 0.868476366624235 4.4466252394486219 0.69820278603583563 0.3903771182522181 2.9297401695512235 0.30483596911653954 0.52044317359104753 0.36788440961390723 0.70047416677698482 0.75998286856338193 0.29267503879964352 0.87274563591927279 2.7263675690628588
leaf_count=924 29 7 29 28 129 19 82 52 98 26 19 21 29 44 17 257 12 32 124 16 6 103 9 30 4 31 14 8 16 85
internal_value=1.993e-10 -0.0030852 -0.00968375 0.00663938 0.0298903 0.00106226 0.0123457 -0.0236426 0.0230084 0.0391751 0.0151016 -0.00214261 -0.0118609 0.0117703 -0.0153667 -0.0122819 0.018395 0.0132368 -0.00276019 0.0336428 0.0448688 0.0541602 -0.0155681 0.0385528 -0.00276164 0.0108816 -0.0205159 0.0479336 -0.00166154 0.011201
internal_weight=76.2572 65.3044 38.9054 26.399 5.1072 21.2918 11.5367 2.63687 8.89984 5.41753 3.14451 3.48231 37.8487 4.88967 32.959 9.75508 10.9528 10.0039 5.60778 4.39611 3.69791 3.32012 9.43286 0.825279 2.45184 2.08395 1.38348 1.16115 4.07227 3.19953
internal_count=2300 1970 1144 826 136 690 375 80 295 176 94 119 1115 174 941 315 330 301 164 137 121 109 296 39 68 64 33 40 130 114
is_linear=0
shrinkage=0.05


Tree=11
num_leaves=31
num_cat=0
split_feature=6 0 4 2 0 6 3 5 6 0 7 6 4 4 0 3 6 4 4 5 3 7 3 4 6 0 3 1 7 8
split_gain=1.35849 1.38727 2.57261 1.22439 1.62278 1.28046 1.13994 1.2905 1.43817 1.16403 1.06189 1.29047 1.51181 1.71324 1.46925 1.16158 1.05012 1.36532 1.55226 1.45814 1.2901 0.996302 1.07136 0.993767 0.971279 1.00357 2.15257 1.66896 1.43574 2.42452
threshold=1276.5000000000002 0.57905000000000006 40.937435000000008 0.84850000000000014 0.42460000000000003 1247.5000000000002 1.0275000000000001 -73.998919999999984 1338.5000000000002 0.92370000000000008 1.2500000000000002 906.50000000000011 40.531630000000007 40.585660000000011 0.62135000000000018 9.2925000000000022 941.50000000000011 40.84035500000001 40.583415000000009 -74.224264999999988 3.0735000000000006 1.4500000000000002 1.3320000000000003 40.874235000000006 727.50000000000011 0.35715000000000002 7.0645000000000016 274.50000000000006 3.8500000000000001 3.5000000000000004
decision_type=2 2 2 2 2 2 2 2 2 2 2 2 2 2 2 2 2 2 2 2 2 2 2 2 2 2 2 2 2 2
left_child=1 2 3 5 -5 24 -2 9 23 21 -3 12 -12 -14 -15 -16 -13 18 -18 -20 -19 -8 -23 -9 25 28 27 -27 -1 -30
right_child=6 10 -4 4 -6 -7 7 8 -10 -11 11 16 13 14 15 -17 17 20 19 -21 -22 22 -24 -25 -26 26 -28 -29 29 -31
leaf_value=-0.0076206031907499324 0.071088269448089991 0.055028529820014355 0.066783317292606212 -0.00068852796423966899 0.0765365354001009 0.069074199669175593 -0.03824765400176483 0.072620716789172909 -0.017886474551975822 -0.029566511427300008 -0.033166280493421373 -0.051786064827249095 0.073916716702786142 0.071888822985045175 0.0040659939737115233 0.074717514000545077 0.064360440088600798 -0.021027081950830147 0.096421917794834 -0.033094020386383129 0.079618053247944159 -0.026668244431960177 0.064513340803375729 -0.035561205247582849 -0.025272706791346605 0.097493947432285094 -0.050418439841253028 -0.0076571851771661762 0.096741104832493555 -0.0082268796477189716
leaf_weight=7.9551561018452102 0.88658638764172693 1.0744651127606655 1.0942123266868282 3.9402059884741893 0.82222729315981258 0.45160209340974589 0.32672267500311081 0.85008100233971962 4.1909421465825289 0.62408485915511835 1.6541396382963345 1.4073844974627707 1.222950474359094 0.95458372216671605 11.868844224605706 0.61174758663401085 0.53125441959127773 0.5192637783475218 0.22951412573456664 4.0893705047201374 0.82313938275910914 0.36591428797692094 2.6936750435270369 0.28293858328834176 14.44904879410751 0.42921281547751222 3.4460674365982413 3.123672082205303 0.97862896975129876 1.2563285086071116
leaf_count=239 29 48 29 130 44 17 12 32 124 16 45 24 50 37 378 27 31 15 8 118 45 6 103 8 398 24 66 108 52 37
internal_value=-9.73921e-11 -0.0027459 -0.00876983 -0.0110132 0.0126443 -0.0145241 0.0169072 0.0117611 -0.00437444 0.0331816 0.00640243 0.00421748 0.0121458 0.0172592 0.0121019 0.00752904 -0.0127997 -0.00393919 -0.0162906 -0.0262113 0.0406868 0.0447458 0.0536084 0.0456054 -0.0157174 -0.00768531 -0.0222631 0.00504579 0.00232725 0.0377358
internal_weight=73.154 62.933 37.9464 36.8522 4.76243 32.0897 10.2209 9.33436 5.32396 4.0104 24.9867 23.9122 16.3123 14.6581 13.4352 12.4806 7.59993 6.19254 4.85014 4.31888 1.3424 3.38631 3.05959 1.13302 31.6381 17.1891 6.99895 3.55288 10.1901 2.23496
internal_count=2300 1970 1144 1115 174 941 330 301 164 137 826 778 537 492 442 405 241 217 157 126 60 121 109 40 924 526 198 132 328 89
is_linear=0
shrinkage=0.05


Tree=12
num_leaves=31
num_cat=0
split_feature=6 0 4 2 5 3 0 1 3 0 4 0 7 6 0 5 2 1 3 5 7 7 7 5 4 3 6 4 3 7
split_gain=1.20492 1.57959 2.3143 1.49049 1.23049 1.44616 1.00949 0.966851 1.28395 0.917414 1.35476 1.2606 1.19868 1.17216 1.26707 1.02298 1.06784 0.864072 0.809324 1.83193 0.803637 1.65188 1.42085 1.38089 1.23815 1.16849 1.11121 1.02896 0.815288 0.745543
threshold=1247.5000000000002 0.57905000000000006 40.937435000000008 0.96950000000000014 -73.998919999999984 1.6340000000000001 0.92370000000000008 600.50000000000011 3.786 0.65215000000000012 40.522270000000006 0.72770000000000012 1.3500000000000003 826.50000000000011 0.96070000000000011 -74.060289999999995 0.58850000000000013 160.50000000000003 5.2095000000000011 -73.89458999999998 3.1500000000000008 1.9500000000000002 4.1500000000000012 -74.12314499999998 40.845195000000011 6.5605000000000002 619.50000000000011 40.53609500000001 7.267500000000001 1.4500000000000002
decision_type=2 2 2 2 2 2 2 2 2 2 2 2 2 2 2 2 2 2 2 2 2 2 2 2 2 2 2 2 2 2
left_child=1 2 3 -1 6 -6 29 17 -9 10 -3 -11 -13 20 -15 16 -12 -7 -19 -20 21 24 23 -22 26 -24 -14 -23 -25 -2
right_child=4 9 -4 -5 5 7 -8 8 -10 11 15 12 13 14 -16 -17 -18 18 19 -21 22 27 25 28 -26 -27 -28 -29 -30 -31
leaf_value=-0.013693422708167688 -0.025057307455619904 -0.052969785335220024 0.06542259267967121 0.049697297899899545 0.071971814322296379 0.039681821123741218 -0.026180827734937708 -0.02313002385580358 0.049274810995080326 -0.021021720512327813 0.055073473977586773 0.072580468588650734 0.074647395717889892 -0.018929032486071529 0.087938822205113468 0.060077793240471591 -0.030189770590335355 -0.05666941626176053 -0.049253419716343491 0.077124201352358535 0.042564006696687973 -0.027379809354025328 0.078450416048944219 -0.047459554546827473 -0.061386903634692319 -0.0040354195641185212 -0.034227888592017662 0.076181959810451505 0.019696497084362514 0.050071650643931521
leaf_weight=32.68503118987428 0.36231555836275209 0.45500715356320398 0.99651067610829969 0.95436795614659686 0.64576860144734194 0.45783116575330529 0.59711343469098199 1.1077840607613327 1.3688741826917974 4.3738604142563444 0.6452091515529903 0.71762644639238615 0.57691173721104705 4.8098011265974483 0.29433396412059654 2.2088700258173048 0.8523005866445601 1.6921396900434049 0.79235776327550433 0.44938487652689174 0.81039601843804288 0.27448619599454138 0.95246831397525944 1.9960981239564706 0.59043568465858698 0.78172061312943697 0.39469000231474638 1.9007639470510183 0.58421230223029841 3.7272406546398997
leaf_count=1055 14 7 28 39 24 22 18 27 63 134 27 41 27 161 17 74 23 30 14 24 30 9 50 49 9 25 10 87 24 138
internal_value=-3.19461e-11 -0.00290605 -0.00967049 -0.011895 0.0150105 0.00095365 0.0345485 -0.00686135 0.0168889 0.00718442 0.0284534 0.00254021 0.00955853 0.0063203 -0.0127664 0.0384492 0.0065463 -0.024204 -0.0341733 -0.00351754 0.0173132 0.0349449 0.00445544 -0.0143726 -0.00428253 0.0412683 0.0304194 0.0631139 -0.0322546 0.0434156
internal_weight=69.0559 57.8551 34.6359 33.6394 11.2008 6.51414 4.68667 5.86837 2.47666 23.2192 4.16139 19.0578 14.6839 13.9663 5.10414 3.70638 1.49751 3.39171 2.93388 1.24174 8.86218 3.73729 5.1249 3.39071 1.56204 1.73419 0.971602 2.17525 2.58031 4.08956
internal_count=2300 1926 1122 1094 374 204 170 180 90 804 131 673 539 498 178 124 50 90 68 38 320 142 178 103 46 75 37 96 73 152
is_linear=0
shrinkage=0.05


Tree=13
num_leaves=31
num_cat=0
split_feature=6 0 4 2 3 5 1 1 3 0 0 0 4 7 6 5 6 2 7 7 7 5 4 3 4 6 3 7 6 3
split_gain=1.1151 1.29263 2.02913 1.24302 1.12014 1.23281 0.968594 1.16292 1.19311 0.873364 0.856511 1.23539 1.18064 1.0764 1.14403 1.03246 0.914338 0.784896 0.747755 1.33604 1.32252 1.26234 1.19585 1.01666 0.872159 0.851282 0.735104 0.691514 0.687699 0.715896
threshold=1247.5000000000002 0.57905000000000006 40.937435000000008 0.96950000000000014 1.0275000000000001 -73.998919999999984 137.50000000000003 600.50000000000011 3.786 0.92370000000000008 0.65215000000000012 0.72770000000000012 40.522270000000006 1.3500000000000003 826.50000000000011 -74.060289999999995 302.50000000000006 0.58850000000000013 3.1500000000000008 1.9500000000000002 4.1500000000000012 -74.12314499999998 40.845195000000011 6.5605000000000002 40.53609500000001 619.50000000000011 1.9425000000000001 3.2500000000000004 691.50000000000011 7.6185000000000009
decision_type=2 2 2 2 2 2 2 2 2 2 2 2 2 2 2 2 2 2 2 2 2 2 2 2 2 2 2 2 2 2
left_child=1 2 3 -1 -2 9 -7 -8 -9 -6 12 -12 -3 -13 18 16 -14 -18 19 22 21 27 25 -22 -21 -15 -5 -20 29 -23
right_child=4 10 -4 26 5 6 7 8 -10 -11 11 13 15 14 -16 -17 17 -19 20 24 23 28 -24 -25 -26 -27 -28 -29 -30 -31
leaf_value=-0.012742901501796914 0.068749549265012158 -0.053709176027126986 0.064220297283121758 -0.036995330049717189 0.039466702375492074 0.079375667159204077 -0.031423919961697348 -0.022454904553847011 0.048739223349075954 -0.029097052084807885 -0.021997057826905808 0.070658299900700119 0.079934011493855803 0.072706976970168077 -0.013404988513400346 0.058864997459556749 0.035858280816778762 -0.049915220296082564 -0.027199037045170002 -0.025929379783497249 0.076365230947993135 -0.059052064380584038 -0.060350811755075506 -0.002375061170114259 0.073801012687124898 -0.026947551000274385 0.069360239531354048 0.071957332811436472 0.029948433840056788 0.0087329001687599175
leaf_weight=31.756853137805592 0.88319749850779672 0.40121958218515219 0.92014565644785662 0.20906041190028091 3.6093470840714863 0.31852626567706366 2.9347823557909578 1.0984351758379491 1.2675678841769693 0.53305194224230934 4.1482161681633469 0.67541034240275521 0.31088996492326293 0.54662782954983258 4.8452268999535582 2.1288157117087394 0.43343508243560769 0.69339201645925641 0.2573634814471023 0.25047940784134004 0.9158808412030337 1.5924145318567746 0.54268713388592005 0.74210584862157702 1.7566039848607031 0.35248694289475679 0.72900018142536283 0.5550400884822011 0.38817280251532782 0.51564337173476804
leaf_count=1055 34 7 28 5 138 18 76 29 63 16 134 41 12 27 178 74 22 16 4 9 50 35 9 25 87 10 34 26 18 20
internal_value=-8.6725e-11 -0.00283532 -0.00900647 -0.0110673 0.0148272 0.00994853 -0.00530743 -0.0103961 0.0156868 0.0306438 0.00657166 0.00195602 0.027609 0.00908586 0.00594978 0.0367569 0.00402173 -0.0169224 0.0170933 0.0349788 0.00467339 -0.0135911 -0.00173853 0.0411215 0.0613549 0.0336386 0.0456574 0.0405453 -0.0312099 -0.0424715
internal_weight=66.3121 55.6672 33.6151 32.6949 10.6449 9.76171 5.61931 5.30079 2.366 4.1424 22.0521 18.0844 3.96775 13.9361 13.2607 3.56653 1.43772 1.12683 8.41551 3.44889 4.96662 3.30863 1.4418 1.65799 2.00708 0.899115 0.938061 0.812404 2.49623 2.10806
internal_count=2300 1926 1122 1094 374 340 186 168 92 154 804 673 131 539 498 124 50 38 320 142 178 103 46 75 96 37 39 30 73 55
is_linear=0
shrinkage=0.05


Tree=14
num_leaves=31
num_cat=0
split_feature=6 0 7 0 2 5 3 6 3 3 0 3 2 8 3 5 6 4 4 4 1 7 3 6 7 6 6 6 5 5
split_gain=0.960207 1.06117 0.982629 1.20207 0.975751 0.93501 0.940287 0.817929 1.27976 1.03005 0.938482 1.42297 1.08661 0.876226 1.01351 0.870364 0.823394 0.783409 1.35007 1.2646 0.741512 1.49598 0.937452 0.902022 1.10719 1.28929 1.03166 0.919163 0.97481 1.35263
threshold=1276.5000000000002 0.96070000000000011 2.8500000000000001 0.035350000000000006 0.96950000000000014 -74.175774999999987 1.0275000000000001 661.00000000000011 4.4225000000000012 0.87300000000000011 0.18525000000000003 8.408000000000003 0.97150000000000014 1.5000000000000002 5.7180000000000009 -74.221564999999984 70.500000000000014 40.516025000000006 40.531630000000007 40.556065000000011 967.50000000000011 2.1500000000000008 8.2680000000000025 1037.5000000000002 1.7500000000000002 1096.5000000000002 947.50000000000011 906.50000000000011 -74.065214999999981 -74.194994999999992
decision_type=2 2 2 2 2 2 2 2 2 2 2 2 2 2 2 2 2 2 2 2 2 2 2 2 2 2 2 2 2 2
left_child=1 2 3 -1 20 -2 -7 9 15 -4 -10 12 -12 14 -11 -9 -15 -18 -19 -20 23 22 -22 26 25 -25 27 28 29 -5
right_child=5 -3 7 4 -6 6 -8 8 10 13 11 -13 -14 16 -16 -17 17 18 19 -21 21 -23 -24 24 -26 -27 -28 -29 -30 -31
leaf_value=0.080410098999011914 0.053602683010151586 0.039778080114590872 0.056850777880598204 -0.0016927721302035577 0.068098879426590805 0.067245905054983859 0.0031600112715527459 0.082980692791162713 -0.036759466595898876 0.06263184770887191 0.031253211060831752 -0.028346545396129005 -0.060001977440180931 -0.04503082818680855 -0.0076959604946953437 -0.035238103855105382 0.087388459140569849 -0.072768678654835869 0.083206707339922456 -0.0055603429451923951 -0.046262280975860527 0.026579226256369611 0.038901116347106156 -0.034158437355392986 -0.033859115853581152 0.084797162907326584 0.055817065615740562 -0.041423652642471651 0.0019164419044050138 0.062618294180725717
leaf_weight=0.50454019475728529 1.3444531536661086 1.4464744869619597 0.72380953654647129 1.4846347596030685 0.55128266010433336 0.6231896490789931 7.0186227920930833 0.15912120696157206 1.6654823024291543 0.98199966200627331 3.6233034131582831 2.0364476487739012 0.35848644003272045 1.4285474424250413 1.0710014328360555 7.2256003899383341 0.22639907663687964 0.71879365108907123 0.41900146659463544 9.4572845311486144 2.7726867587771262 1.3517187018878756 0.36576100601814676 0.42235146835446302 2.6153326322091743 0.49444588425103575 1.1750063188374031 0.91492899478180412 8.8861058148322627 1.8198192121926755
leaf_count=34 50 75 39 52 25 24 256 10 50 58 173 71 5 33 36 192 16 10 20 320 74 61 20 10 74 38 54 26 300 94
internal_value=-3.4531e-11 -0.00247999 -0.0036235 0.00407136 0.00238606 0.0151511 0.00838621 -0.00959591 -0.0178274 -0.00134163 -0.00354236 0.00565011 0.0230374 -0.00428648 0.0259435 -0.0326908 -0.00935277 -0.0046429 -0.00660945 -0.0017944 0.000761764 -0.0173968 -0.0363372 0.00533914 -0.0172848 0.0299965 0.0109349 0.00691091 0.0105385 0.0337244
internal_weight=63.8866 54.9004 53.4539 23.3586 22.8541 8.98627 7.64181 30.0953 15.0684 15.0268 7.68372 6.01824 3.98179 14.303 2.053 7.38472 12.25 10.8215 10.5951 9.87629 22.3028 4.49017 3.13845 17.8126 3.53213 0.916797 14.2805 13.1055 12.1906 3.30445
internal_count=2300 1970 1895 862 828 330 280 1033 501 532 299 249 178 493 94 202 399 366 350 340 803 155 94 648 122 48 526 472 446 146
is_linear=0
shrinkage=0.05


Tree=15
num_leaves=31
num_cat=0
split_feature=6 0 4 5 3 6 7 2 2 0 6 0 2 6 7 3 0 0 5 5 4 5 1 2 4 5 6 5 7 1
split_gain=0.810434 1.11208 1.57687 0.888483 0.893595 0.796871 1.66698 0.770131 0.731333 1.31879 0.855231 0.755705 0.767628 0.701517 1.1293 1.36978 0.706358 0.66474 0.78936 0.661209 1.05085 1.31921 0.864407 1.31803 0.845603 0.880576 1.11834 0.795784 0.777566 0.697167
threshold=1276.5000000000002 0.57905000000000006 40.937435000000008 -74.175774999999987 1.0275000000000001 892.50000000000011 1.5500000000000003 0.083500000000000019 0.84850000000000014 0.42460000000000003 1247.5000000000002 0.093550000000000008 0.87950000000000006 279.50000000000006 4.1500000000000012 0.92100000000000015 0.41330000000000006 0.15890000000000001 -73.799769999999981 -74.105859999999993 40.855585000000012 -74.076464999999985 918.50000000000011 0.92850000000000021 40.531630000000007 -73.953129999999987 711.00000000000011 -74.187584999999984 4.4500000000000011 258.50000000000006
decision_type=2 2 2 2 2 2 2 2 2 2 2 2 2 2 2 2 2 2 2 2 2 2 2 2 2 2 2 2 2 2
left_child=1 2 8 -2 -5 19 -7 -8 10 11 -1 -10 -13 -14 15 -15 -17 18 -6 22 21 -21 23 -3 -23 29 28 -24 -27 -26
right_child=3 5 -4 4 17 6 7 -9 9 -11 -12 12 13 14 -16 16 -18 -19 -20 20 -22 24 27 -25 25 26 -28 -29 -30 -31
leaf_value=-0.014230101393117532 0.051481821843072151 0.060479872033621346 0.062735427062854079 0.06602602580211045 0.069387746871291234 0.067104423036903088 0.072580022833552416 -0.018603639497807509 0.072981885783509948 0.072081464842718032 0.065611745637139424 0.051174818387320069 -0.056343670314516807 -0.078944090655668431 -0.049504777209009719 0.080647857398308348 -0.031658964312361891 -0.0045217080895215986 -0.023315955358662807 -0.047273769546532382 -0.022177223227769022 -0.021014978159572085 -0.037263822533563952 -0.057311307085043742 0.0093020087250405888 -0.006333578435079059 0.0742109325363325 0.0420432302703731 0.077774378694835472 0.070624091180982382
leaf_weight=25.969635519490122 1.3450423455797134 2.2664953002240527 0.76151093374937673 0.59541057888418247 0.69848028430715203 0.68200291553512116 0.24067455437034357 6.1171560943475924 0.29759670561179463 0.69702687091194082 0.33978779939934511 0.43811145494692061 0.89896853733807836 0.22986689954996087 0.75969090918079007 0.70051565486937761 0.174980110488832 5.7430134450551122 0.34208719199523308 0.75130035262554873 2.3946430934593081 0.9659642856568097 0.71631081914529204 0.26528339507058252 0.64133584173396219 2.7983878185041262 0.64656030456535507 0.56643604626879074 0.30471293255686749 1.6714436733163891
leaf_count=924 50 107 29 24 37 34 14 222 20 44 17 25 14 3 14 49 5 207 12 17 78 35 16 7 20 106 42 22 19 87
internal_value=1.11988e-10 -0.0023535 -0.00833293 0.0141081 0.00729561 0.00653734 -0.00718309 -0.0151519 -0.010107 0.00927655 -0.0131989 -0.00323205 -0.0103151 -0.0200616 -0.00257342 0.0296814 0.0582018 0.00214071 0.0389113 0.0134421 0.00678606 0.0157011 0.0311955 0.0481375 0.0224328 0.0293556 0.0143898 -0.00224337 0.00192551 0.0536194
internal_weight=61.0204 52.2964 31.2677 8.72403 7.37899 21.0287 7.03983 6.35783 30.5062 4.19676 26.3094 3.49973 3.20213 2.76402 1.86505 1.10536 0.875496 6.78358 1.04057 13.9889 10.1743 7.77971 3.81453 2.53178 7.0284 6.06244 3.74966 1.28275 3.1031 2.31278
internal_count=2300 1970 1144 330 280 826 270 236 1115 174 941 130 110 85 71 57 54 256 49 556 404 326 152 114 309 274 167 38 125 107
is_linear=0
shrinkage=0.05


Tree=16
num_leaves=31
num_cat=0
split_feature=7 6 0 0 1 1 6 5 0 1 1 6 5 1 1 6 3 2 4 0 4 0 6 5 2 2 5 6 1 5
split_gain=0.734677 1.05333 0.785025 0.695952 0.747313 0.672782 0.694437 0.853589 0.820602 0.78236 1.30268 0.805269 1.47101 0.790916 1.06676 0.782269 0.764749 0.714205 1.05277 0.698334 0.654469 0.757161 1.27574 0.668778 0.652827 0.647174 0.675413 0.638519 0.84433 0.633954
threshold=1.2500000000000002 882.00000000000011 0.67435000000000012 0.41835000000000006 858.00000000000011 1183.5000000000002 1276.5000000000002 -74.175774999999987 0.15890000000000001 1009.5000000000001 984.50000000000011 727.50000000000011 -73.762374999999977 1133.0000000000002 1171.0000000000002 716.50000000000011 0.42400000000000004 0.84850000000000014 40.688460000000006 0.18890000000000004 40.629460000000002 0.43635000000000007 1483.5000000000002 -73.782399999999981 0.086500000000000007 0.025500000000000005 -74.229679999999988 1383.0000000000002 600.50000000000011 -73.739244999999983
decision_type=2 2 2 2 2 2 2 2 2 2 2 2 2 2 2 2 2 2 2 2 2 2 2 2 2 2 2 2 2 2
left_child=1 2 3 4 -1 6 9 -8 -9 10 11 12 15 16 24 -2 -11 25 -19 -10 29 22 -22 27 -15 -13 -27 -23 -29 -21
right_child=5 -3 -4 -5 -6 -7 7 8 19 13 -12 17 -14 14 -16 -17 -18 18 -20 20 21 23 -24 -25 -26 26 -28 28 -30 -31
leaf_value=0.085539026326039838 -0.00061235318087064447 0.073427809675850039 0.069154276601542483 -0.052006073657414456 -0.027098281712071078 0.054219051787595535 0.049902283900414714 0.04345111800703038 -0.064623696238942582 0.085547929832192782 0.083784979779376448 0.045174886999370695 0.048913494374461373 -0.031972327206742625 -0.036439645603238695 0.082078615227534971 -0.029499385652467871 -0.013019906992872166 0.060891600864518496 0.055324082428712354 0.071805491793057133 -0.047518116420499162 -0.063520027472316998 0.043796413063759587 0.060394352524090623 0.047611970835658948 -0.016936658913643075 -0.028258167408143478 0.055799662668717692 -0.044302920318652558
leaf_weight=0.26645659678615563 19.381187525228597 0.81187311117537309 0.35235707229003299 0.63304725661873817 0.32917944993823767 0.54330010060220857 1.2471333071589468 1.149542739149181 0.42365718912333239 0.14797220332547834 0.44693814590573211 0.45722388569265859 1.713275806279859 0.24329418246634282 0.74067888781428326 0.29029299272224207 6.0618292327853851 1.1306192150805134 0.83951719664037217 0.87146899150684476 0.63383147632703174 1.5754504227079449 0.24014230538159609 0.39038026006892401 0.89507028937805444 0.41654032724909384 14.966828641656319 0.91177947353571631 0.44432266778312624 0.19549826253205516
leaf_count=20 731 51 26 14 11 29 47 51 6 9 37 20 99 7 24 20 187 42 57 48 39 37 4 22 57 26 523 25 27 4
internal_value=1.24835e-10 0.0271347 0.00336294 -0.0155045 0.0232898 -0.00115212 -0.00169111 0.0118615 0.00492155 -0.00398622 -0.00109464 -0.0020625 0.004478 -0.0181575 0.010265 0.000607921 -0.0267579 -0.00991547 0.0184754 -0.00286727 0.00210407 -0.00678724 0.034622 -0.0176817 0.0406535 -0.0134465 -0.0151889 -0.0258684 -0.00071688 0.0370696
internal_weight=58.7507 2.39291 1.58104 1.22868 0.595636 56.3578 55.8145 8.08321 6.83607 47.7313 39.6424 39.1955 21.3848 8.08884 1.87904 19.6715 6.2098 17.8107 1.97014 5.68653 5.26287 4.19591 0.873974 3.32193 1.13836 15.8406 15.3834 2.93155 1.3561 1.06697
internal_count=2300 122 71 45 31 2178 2149 310 263 1839 1555 1518 850 284 88 751 196 668 99 212 206 154 43 111 64 569 549 89 52 52
is_linear=0
shrinkage=0.05


Tree=17
num_leaves=31
num_cat=0
split_feature=7 6 0 0 1 1 0 0 4 7 4 5 4 5 1 1 3 7 3 3 5 4 4 6 6 7 3 0 4 6
split_gain=0.774301 0.874909 0.777921 0.732393 0.679214 0.646601 0.636979 0.839075 0.886905 1.03005 0.845658 1.94191 1.53632 0.781496 1.4704 1.29601 1.17705 1.02087 0.8077 0.884317 0.748088 0.736831 0.735008 0.789011 0.725109 1.16248 1.46759 1.2832 1.07359 1.33265
threshold=1.2500000000000002 882.00000000000011 0.67435000000000012 0.41835000000000006 1183.5000000000002 858.00000000000011 0.13100000000000003 0.18525000000000003 40.598455000000008 3.6500000000000008 40.531630000000007 -74.112334999999987 40.552070000000008 -73.986194999999981 466.50000000000006 195.50000000000003 4.988500000000001 4.6500000000000012 6.5605000000000002 7.5560000000000009 -73.759529999999984 40.520735000000009 40.764555000000009 673.50000000000011 876.00000000000011 4.2500000000000009 6.5605000000000002 0.23880000000000004 40.651955000000008 613.50000000000011
decision_type=2 2 2 2 2 2 2 2 2 2 2 2 2 2 2 2 2 2 2 2 2 2 2 2 2 2 2 2 2 2
left_child=1 2 3 5 6 -1 13 8 9 -8 11 -9 -12 14 17 -15 -16 -2 -17 -20 24 -13 -10 -24 25 27 -27 -14 -29 -30
right_child=4 -3 -4 -5 -6 -7 7 10 22 -11 12 21 20 15 16 18 -18 -19 19 -21 -22 -23 23 -25 -26 26 -28 28 29 -31
leaf_value=0.083232871760759136 0.077627935118618513 0.069617406013831679 0.067010258577610782 -0.054786414083630275 0.052392755123986251 -0.023865663317103006 0.088489594789710732 0.08000840667285837 -0.05171880958193046 -0.046044175355790529 0.055667581916083023 -0.015542169871817089 0.090226401813007659 -0.032081836804238373 -0.04604055979722909 0.069886651570126787 0.023484167097440591 -0.036408796232153783 -0.043700606126235227 0.054794327208901664 0.022721485041842075 -0.064273088569665418 0.076186443623522837 -0.02821639867480874 -0.011274901137336578 0.0094876046256530434 -0.047260822805127341 0.03509873689881917 -0.009988177757759566 0.028750915214340214
leaf_weight=0.26037332694977455 0.75831215572543464 0.82386441668495525 0.38665826758369792 0.57538678240962327 0.58450816641561587 0.30722064943984151 0.32929567061364595 0.38803829299286041 2.3039621061179791 0.25051530078053474 1.2093647271394719 1.6384009292814874 0.4812082583084657 0.64396744058467392 1.779521106509492 1.5306443900335582 0.92532649810891587 0.2647812757641077 0.41309444047510613 0.50829046661965549 2.929238581331453 1.4732051326427607 0.25467797624878574 0.62525302357971668 16.420357665570918 2.269890039577148 2.2873537103878334 2.7700623156270003 8.2995272693224234 3.0306804694700977
leaf_count=20 42 51 26 14 29 11 19 29 50 6 75 59 36 22 41 99 46 5 10 30 155 27 21 18 619 100 57 150 292 141
internal_value=1.76912e-10 0.028078 0.0057048 -0.0150342 -0.00121542 0.0252638 -0.001798 -0.0038722 -0.0265146 0.0303624 -0.00189941 -0.0254613 0.000177739 0.0124762 -0.00294366 0.0310436 -0.0222562 0.0481147 0.047622 0.010635 -0.00156584 -0.0386141 -0.0368723 0.00200086 -0.00356655 0.00304695 -0.0189953 0.00993597 0.00719585 0.000374016
internal_weight=56.723 2.3535 1.52964 1.14298 54.3695 0.567594 53.785 46.961 3.7637 0.579811 43.1973 3.49964 39.6977 6.82394 3.72794 3.096 2.70485 1.02309 2.45203 0.921385 38.4883 3.11161 3.18389 0.879931 35.5591 19.1387 4.55724 14.5815 14.1003 11.3302
internal_count=2300 122 71 45 2178 31 2149 1854 114 25 1740 115 1625 295 134 161 87 47 139 40 1550 86 89 39 1395 776 157 619 583 433
is_linear=0
shrinkage=0.05


Tree=18
num_leaves=31
num_cat=0
split_feature=7 6 0 6 5 3 3 0 1 1 1 3 2 5 2 6 1 3 6 1 6 3 2 2 3 1 2 1 1 0
split_gain=0.904337 0.739444 0.692541 0.652086 1.17724 0.917 0.941672 0.699421 0.659412 0.854065 1.11675 0.837978 0.826634 0.646671 0.762343 0.626044 0.648889 0.618466 0.954752 0.657362 1.0235 0.602117 0.700932 1.05604 0.664773 0.939799 0.718231 0.800668 0.645362 0.599941
threshold=1.2500000000000002 882.00000000000011 0.67435000000000012 1311.5000000000002 -74.157684999999987 1.3070000000000002 8.2990000000000013 0.96070000000000011 1133.0000000000002 1009.5000000000001 984.50000000000011 7.2410000000000005 0.6665000000000002 -74.032849999999982 0.57150000000000001 763.50000000000011 78.500000000000014 8.552500000000002 568.50000000000011 377.50000000000006 286.50000000000006 5.2285000000000013 0.81950000000000001 0.97150000000000014 6.5330000000000004 141.50000000000003 0.20850000000000002 733.50000000000011 335.50000000000006 0.98505000000000009
decision_type=2 2 2 2 2 2 2 2 2 2 2 2 2 2 2 2 2 2 2 2 2 2 2 2 2 2 2 2 2 2
left_child=1 2 -1 7 -5 -6 -7 8 9 10 15 12 13 -10 -15 16 -2 -18 19 -19 -21 -17 24 -24 25 -23 28 -28 -26 -9
right_child=3 -3 -4 4 5 6 -8 29 11 -11 -12 -13 -14 14 -16 21 17 18 -20 20 -22 22 23 -25 26 -27 27 -29 -30 -31
leaf_value=-0.012499222727267688 0.08090699984181024 0.067290632052541252 0.065607893940633474 0.065639665656680418 0.065158292871646831 -0.010478716699026128 0.053231292807141208 0.071968703337132636 -0.035559491882693105 -0.024181768227767266 0.078132441557886845 0.079555273066034507 0.074939754929421093 0.083568489200234131 -0.04440236493752419 -0.020337862514211588 0.0051172158795930092 -0.045479483344380414 0.057416216563683023 0.080200609258534838 -0.02467959985232249 -0.067215314431985057 0.064004263413357451 -0.044422880062097547 -0.011627902807428083 0.036724249661696233 -0.0088631461989855855 -0.056134734938038056 0.084921907774611338 -0.00084886038091058237
leaf_weight=1.0453782668337219 0.25665460270829754 0.86223151825834055 0.38954753195866931 0.92558945855125774 0.56514583178795774 4.364609895972535 0.6688799567054956 0.56175205251201876 0.9334055669605732 5.5606927460758007 0.4178908346220841 0.49111706542316813 0.34734903904609371 0.30757023720070653 0.18721519596874714 8.6671469475259091 15.756355274585077 1.9054778441786764 0.3748717278940602 0.30859566025901564 0.94480273546651006 0.25891522318124671 0.84004775271750964 0.30650200671516359 0.4096081145107745 1.3588462270563466 2.5453608592506503 1.3821733684744684 0.29972388863097876 0.56975719705224037
leaf_count=45 21 51 26 46 23 162 39 40 26 198 36 33 29 20 6 315 699 46 24 25 35 5 54 11 12 79 107 34 29 24
internal_value=-3.3856e-11 0.0306949 0.00870496 -0.00136872 0.0134038 0.00476791 -0.00201255 -0.00351086 -0.00451217 -0.00594334 -0.00312874 0.0217502 0.00576118 -0.0110637 0.0351473 -0.00408222 0.00192818 0.000877364 -0.0180274 -0.0269805 0.00114266 -0.0113937 -0.000919735 0.0350189 -0.00750773 0.0200892 -0.0171361 -0.0254989 0.0291686 0.0353023
internal_weight=53.8132 2.29716 1.43493 51.5161 6.52423 5.59864 5.03349 44.9918 43.8603 41.5937 36.033 2.26666 1.77554 1.42819 0.494785 35.6151 19.5468 19.2901 3.53375 3.15888 1.2534 16.0683 7.40118 1.14655 6.25463 1.61776 4.63687 3.92753 0.709332 1.13151
internal_count=2300 122 71 2178 270 224 201 1908 1844 1730 1532 114 81 52 26 1496 850 829 130 106 60 646 331 65 266 84 182 141 41 64
is_linear=0
shrinkage=0.05


Tree=19
num_leaves=31
num_cat=0
split_feature=7 0 6 6 5 3 3 0 1 2 1 1 3 0 0 2 5 4 2 1 3 3 0 0 3 0 1 3 3 1
split_gain=0.902248 0.67594 0.666646 0.662788 1.04217 0.802578 0.755202 0.652567 0.6364 0.781754 0.772072 0.946553 0.769608 0.61341 1.01277 0.602471 0.595861 0.543994 0.810316 0.646438 0.586565 0.831571 0.584329 0.777673 0.509173 0.50654 0.557305 0.495426 0.62292 0.493913
threshold=1.2500000000000002 0.67435000000000012 882.00000000000011 1311.5000000000002 -74.157684999999987 1.3070000000000002 8.2990000000000013 0.96070000000000011 1133.0000000000002 0.66350000000000009 1009.5000000000001 984.50000000000011 6.2055000000000016 0.98505000000000009 0.98850000000000005 0.075500000000000012 -74.032849999999982 40.905880000000003 0.65450000000000019 864.50000000000011 2.9055000000000004 9.0615000000000006 0.91850000000000009 0.90470000000000017 0.42400000000000004 0.41835000000000006 858.00000000000011 7.8665000000000012 6.2055000000000016 713.00000000000011
decision_type=2 2 2 2 2 2 2 2 2 2 2 2 2 2 2 2 2 2 2 2 2 2 2 2 2 2 2 2 2 2
left_child=1 2 25 7 -5 -6 27 8 10 12 11 17 16 -9 -15 -12 -10 22 20 -20 -19 29 23 -2 -17 26 -1 28 -7 -22
right_child=3 -3 -4 4 5 6 -8 13 9 -11 15 -13 -14 14 -16 24 -18 18 19 -21 21 -23 -24 -25 -26 -27 -28 -29 -30 -31
leaf_value=0.079129551905909562 -0.0052708533500109194 0.063727816533720921 0.070118891583894574 0.064332677875194325 0.063999342739498463 -0.011617807174146849 0.049079270869248237 0.070488537351645786 -0.039251440414268687 0.074282250268090544 0.077058619144188267 0.075553839545416196 0.060429395106903941 -0.064431926749228166 0.068490253028474973 0.08399089374125418 0.040114983808868084 -0.041913986034287642 0.071749896384319709 -0.029984872018436155 0.063134106215115629 -0.045329471867275713 -0.032015758766529533 0.071455312646898625 -0.028970805568140402 -0.0467981515353557 -0.026578137669634645 -0.063843570397657548 0.045249976752069931 -0.0098413371583969764
leaf_weight=0.23877778602763944 28.732031764346182 0.92513169441372145 0.32800505764316756 0.87673244811594475 0.52978761284612019 3.275831851176918 0.65639124088920642 0.56828905176371225 0.83724412997253239 0.53455446870066214 0.14375188900157709 0.37597057316452165 0.44531131349503983 0.30868508410640061 0.26747658662497997 0.10177831049077202 0.32958432752638989 0.64024506148416538 0.82145320624113061 0.19279164168983698 0.70209920487832256 0.40492729167453934 2.0488882488571099 0.33409588085487385 5.0228883391828276 0.51301170978695154 0.26095253555104136 0.36993374559096981 0.56453438778407861 0.34619634016416967
leaf_count=20 1272 47 30 46 23 116 39 40 22 39 13 36 32 6 18 7 21 22 41 6 44 14 61 21 178 14 11 9 37 15
internal_value=7.69011e-11 0.0308519 0.00816716 -0.00141421 0.0137718 0.00555743 -0.000804551 -0.00362155 -0.00463629 0.021883 -0.00606425 -0.00334905 0.00450837 0.0336303 -0.0027243 -0.0238955 -0.0168335 -0.00421588 0.015731 0.0524118 -0.00204015 0.015527 -0.00620813 -0.00438894 -0.0267273 -0.0118977 0.0239304 -0.0085815 -0.00325823 0.0390342
internal_weight=51.6974 2.26588 1.34075 49.4315 6.27321 5.39648 4.86669 43.1583 42.0138 2.14669 39.8671 34.5987 1.61214 1.14445 0.576162 5.26842 1.16683 34.2227 3.10771 1.01424 2.09347 1.45322 31.115 29.0661 5.12467 1.01274 0.49973 4.2103 3.84037 1.0483
internal_count=2300 122 75 2178 270 224 201 1908 1844 114 1730 1532 75 64 24 198 43 1496 142 47 95 73 1354 1293 185 45 31 162 153 59
is_linear=0
shrinkage=0.05


Tree=20
num_leaves=31
num_cat=0
split_feature=7 6 5 3 3 0 0 0 8 4 1 5 1 1 1 7 4 6 3 1 4 6 6 6 2 3 1 6 6 0
split_gain=0.887758 0.698967 1.00525 0.704431 0.693649 0.637231 0.61671 0.594332 0.607558 0.523075 0.487893 0.48103 0.469763 0.429893 0.485805 0.523279 0.699077 0.404167 0.385576 0.382277 0.402377 0.365418 0.577541 0.519621 0.449855 0.876989 0.561656 0.430466 1.08719 0.76773
threshold=1.2500000000000002 1311.5000000000002 -74.157684999999987 1.3070000000000002 8.2990000000000013 0.67435000000000012 0.41835000000000006 0.96070000000000011 2.5000000000000004 40.93124000000001 858.00000000000011 -73.776479999999978 1183.5000000000002 118.00000000000001 527.50000000000011 1.5500000000000003 40.749790000000004 1368.5000000000002 4.5110000000000001 713.00000000000011 40.941160000000004 9.5000000000000018 70.500000000000014 75.500000000000014 0.51050000000000006 2.2445000000000008 235.50000000000003 876.00000000000011 857.50000000000011 0.82100000000000006
decision_type=2 2 2 2 2 2 2 2 2 2 2 2 2 2 2 2 2 2 2 2 2 2 2 2 2 2 2 2 2 2
left_child=5 7 -3 -4 13 6 10 9 -9 12 -1 19 21 -5 17 -16 18 -15 -17 -11 -21 -2 24 -24 -23 -26 -27 28 29 -25
right_child=1 2 3 4 -6 -7 -8 8 -10 11 -12 -13 -14 14 15 16 -18 -19 -20 20 -22 22 23 27 25 26 -28 -29 -30 -31
leaf_value=0.075262154034906673 0.081923104024931567 0.063208251314001401 0.062926634264346235 0.079042150889595181 0.048254358367552388 0.062726419717859805 -0.029025251029119698 -0.0036240330296723106 0.068663694035250508 0.067015626224265823 -0.0085743987921074669 -0.019730714535929745 0.043491778212947141 0.026113189416402002 -0.061983359548376006 -0.039122690062926659 0.048284063039579064 -0.038422241068548683 0.027508324952135666 -0.02022339369509514 0.061664170170878642 -0.054495625011110195 0.075075245264552573 -0.0067568846260028228 -0.07287948611682396 -0.057750852893009776 0.076832319016243614 -0.012859536023003668 0.079787282949629793 0.020935562685700751
leaf_weight=0.41117998189292781 0.11629666422959317 0.89820491592399765 0.49116748874075611 0.13831360195763398 0.6435585010331123 0.92021506093442429 0.59743149345740676 0.59854234149679431 0.56509440112859011 0.60811773547902681 0.3002678481861949 0.49162927293218572 0.47435188060626288 0.28528051334433291 0.24618754535913501 0.58274743333458878 0.85891230590641499 1.6219054125249384 0.34604880609549582 0.38737436989322305 0.24482900835573673 1.0965224527753878 0.19907390978187223 19.133060112013489 0.26977189769968379 0.1034894147887826 0.30896325455978513 13.842043224954976 0.40250991471111675 2.8794592721387735
leaf_count=38 11 46 23 9 39 47 23 24 40 35 14 13 27 18 5 17 47 47 19 15 15 28 10 864 5 2 22 613 26 158
internal_value=2.41841e-11 -0.00143734 0.0143536 0.00593768 1.10674e-05 0.0308434 0.00842788 -0.00375078 0.0314809 -0.00476161 0.0398788 0.0221232 -0.0059609 -0.00759971 -0.0106404 0.00635864 0.0157701 -0.0287689 -0.0142975 0.038713 0.0114886 -0.00657257 -0.00684174 -0.00548435 -0.0346619 -0.00278365 0.0430638 -0.00592667 -0.0016454 -0.00313443
internal_weight=50.0626 47.8335 6.11233 5.21412 4.72295 2.22909 1.30888 41.7211 1.16364 40.5575 0.711448 1.73195 38.8255 4.0794 3.94108 2.0339 1.78771 1.90719 0.928796 1.24032 0.632203 38.3512 38.2349 36.4561 1.77875 0.682225 0.412453 36.2571 22.415 22.0125
internal_count=2300 2178 270 224 201 122 75 1908 64 1844 52 78 1766 162 153 88 83 65 36 65 30 1739 1728 1671 57 29 24 1661 1048 1022
is_linear=0
shrinkage=0.05


Tree=21
num_leaves=31
num_cat=0
split_feature=7 6 5 0 6 3 3 0 0 0 0 1 2 3 5 1 4 2 3 3 1 3 3 0 0 1 0 1 5 7
split_gain=0.78125 0.676986 1.01608 0.667383 0.649667 0.639734 0.60467 0.576715 0.556508 0.973931 0.555315 0.497509 0.756089 0.729511 0.531086 0.518956 0.518201 0.649518 0.560063 1.03915 0.557938 0.459551 0.906162 0.444767 0.737278 0.444028 0.69017 1.38337 0.748607 0.99288
threshold=1.2500000000000002 1311.5000000000002 -74.157684999999987 0.67435000000000012 882.00000000000011 1.3070000000000002 8.2990000000000013 0.96070000000000011 0.98505000000000009 0.98850000000000005 0.41835000000000006 1133.0000000000002 0.66350000000000009 6.2055000000000016 -74.032849999999982 1020.0000000000001 40.906970000000008 0.77450000000000008 2.9055000000000004 9.0615000000000006 713.00000000000011 7.5560000000000009 6.2055000000000016 0.91850000000000009 0.90470000000000017 283.50000000000006 0.62435000000000007 312.50000000000006 -73.956764999999976 4.4500000000000011
decision_type=2 2 2 2 2 2 2 2 2 2 2 2 2 2 2 2 2 2 2 2 2 2 2 2 2 2 2 2 2 2
left_child=3 7 -3 4 10 -4 21 11 -9 -10 -1 15 13 14 -13 16 23 18 -18 20 -20 22 -7 24 25 -2 27 -27 -28 -30
right_child=1 2 5 -5 -6 6 -8 8 9 -11 -12 12 -14 -15 -16 -17 17 -19 19 -21 -22 -23 -24 -25 -26 26 28 -29 29 -31
leaf_value=0.023418550573895608 -0.01532663421155684 0.062312208050199797 0.061996748463803167 0.06196926751398011 0.067900903929371356 -0.010428162617007752 0.044893247893866978 0.06783248821776218 -0.066029191773128104 0.065315750615256199 -0.053334703878365808 -0.044822959971769612 0.071964730929678908 0.057949764657689064 0.033215756593230651 -0.021991798833501761 -0.028817920616309778 0.068438045316166068 0.073100267897399221 -0.047134519995713622 -0.0025260998363175217 -0.052257346233752201 0.069637307944858173 -0.029329057422922584 0.069765805748667989 0.08639115716507767 0.030148175224199728 -0.0097873902412054931 -0.013689461159169053 0.084802866459804394
leaf_weight=0.47045873804017835 7.6112947585643367 0.93306291359476734 0.45491987676359613 0.909607633948326 0.31511141895316541 2.9975422953721145 0.63887005764991034 0.54631257988512405 0.29378367762546986 0.2716326555237174 0.47218473698012531 0.71660829358734168 0.51433227700181294 0.40753389161545772 0.31334207393228919 4.4456860928912638 0.77927238820120681 0.50086751719936717 0.74021334690041818 0.38589006289839733 0.36371813574805856 0.50161479180678714 0.40062173875048745 1.8670560672180716 0.33352395182009686 0.3841755641624357 3.0963468699483201 13.939581078477202 2.7955537207890298 0.28165772929787625
leaf_count=31 320 46 23 47 30 116 39 40 6 18 14 22 39 32 21 177 29 31 50 15 17 15 31 62 22 30 184 650 128 15
internal_value=-2.27654e-10 -0.00136725 0.0144183 0.0293434 0.00574832 0.0054692 -0.000196698 -0.00367223 0.0318435 -0.00292954 -0.0150283 -0.00467241 0.0199392 0.00132445 -0.0210812 -0.00595256 -0.00379696 0.0169041 0.00552875 0.0234943 0.0481832 -0.00758343 -0.000988957 -0.00568883 -0.00413699 -0.00501388 -0.00118444 -0.0072078 0.0127908 -0.00467444
internal_weight=48.6824 46.515 5.92663 2.16736 1.25775 4.99357 4.53865 40.5884 1.11173 0.565416 0.942643 39.4767 1.95182 1.43748 1.02995 37.5248 33.0792 2.76996 2.26909 1.48982 1.10393 3.89978 3.39816 30.3092 28.4421 28.1086 20.4973 14.3238 6.17356 3.07721
internal_count=2300 2178 270 122 75 224 201 1908 64 24 45 1844 114 75 43 1730 1553 142 111 82 67 162 147 1411 1349 1327 1007 680 327 143
is_linear=0
shrinkage=0.05


Tree=22
num_leaves=31
num_cat=0
split_feature=7 6 5 0 3 0 6 0 0 3 7 4 1 6 6 3 3 6 1 1 0 1 0 6 4 5 6 5 3 1
split_gain=0.828368 0.683814 0.970878 0.609461 0.582093 0.559372 0.572718 0.490025 0.892502 0.466224 0.551437 0.465348 0.41461 0.385332 0.410916 0.356288 0.823159 0.404874 0.491097 0.356472 0.344642 0.488999 0.344349 0.309522 1.17784 1.13516 0.770098 0.602178 0.610122 0.4644
threshold=1.2500000000000002 1311.5000000000002 -74.157684999999987 0.96070000000000011 1.3070000000000002 0.67435000000000012 882.00000000000011 0.98505000000000009 0.98850000000000005 8.2990000000000013 2.1500000000000008 40.93124000000001 1183.5000000000002 742.00000000000011 957.50000000000011 7.5560000000000009 6.2055000000000016 1483.5000000000002 990.50000000000011 230.50000000000003 0.41835000000000006 858.00000000000011 0.77880000000000005 1024.5000000000002 40.583415000000009 -73.792954999999992 1009.5000000000001 -74.144504999999995 0.52850000000000008 876.50000000000011
decision_type=2 2 2 2 2 2 2 2 2 2 2 2 2 2 2 2 2 2 2 2 2 2 2 2 2 2 2 2 2 2
left_child=5 3 -3 11 -4 6 20 -5 -9 15 -11 12 23 22 -15 16 17 18 19 -6 21 -1 -13 26 25 -25 29 -26 -29 -2
right_child=1 2 4 7 9 -7 -8 8 -10 10 -12 13 -14 14 -16 -17 -18 -19 -20 -21 -22 -23 -24 24 27 -27 -28 28 -30 -31
leaf_value=0.073236785077989017 -0.00080315242235985207 0.061515209990945618 0.061178842932163448 0.066027101704314362 0.035519929638856411 0.061170094306903691 0.067487662405031276 -0.063946549228936611 0.064240202041517244 -0.039963625402171986 0.066952655589662721 0.067608621745253561 0.041526016427844967 -0.030562332925432881 0.038681927306597808 -0.048735804617469153 0.068030492569090203 -0.060374825903439969 0.042700381836994178 -0.022453065747744916 -0.043969189843532722 -0.029710628180814731 -0.016490814443769871 0.072443224302872644 -0.045999159024971106 -0.044458540462874112 0.081234147393653103 0.085136051289891421 -0.016241618688930485 -0.015255755957997713
leaf_weight=0.21593588800169461 19.815951785538353 0.92904882691800583 0.42953092860989173 0.55438392073847242 0.31260639405809554 0.87870577536523331 0.30761914001777768 0.2756126809399575 0.26765762688592076 0.1617856416851281 0.47374640358611941 0.5529918826650817 0.45356917404569586 0.49399148602969944 0.37834835331887007 0.4421682700049131 0.38230368332006026 0.35099812783300866 0.47589533776044834 1.7471966373268513 0.42827399238012731 0.24763004970736802 0.15606938814744353 0.67662920150905848 1.9149679202819241 0.29961251281201651 0.26223105099052091 0.15270370442885894 5.2818761960952543 7.7251391321769907
leaf_count=20 969 46 23 40 18 47 30 6 18 6 33 36 27 14 20 15 31 8 22 68 14 11 8 57 64 10 22 15 250 352
internal_value=-2.05511e-10 -0.00142632 0.0147485 -0.00377674 0.00565162 0.0308625 0.00865961 0.032956 -0.000791687 0.000164543 0.0397353 -0.00483323 -0.00598116 0.0217219 -0.000529941 -0.00661189 -0.000914162 -0.0100449 -0.00307815 -0.0136548 -0.0116317 0.0182438 0.0490977 -0.00657757 -0.0150347 0.0365656 -0.00404505 -0.0218888 -0.0133931 -0.00485704
internal_weight=47.0452 44.967 5.70528 39.2617 4.77623 2.07816 1.19946 1.09765 0.54327 4.3467 0.635532 38.1641 36.5827 1.5814 0.87234 3.71117 3.269 2.8867 2.5357 2.0598 0.89184 0.463566 0.709061 36.1291 8.32579 0.976242 27.8033 7.34955 5.43458 27.5411
internal_count=2300 2178 270 1908 224 122 75 64 24 201 39 1844 1766 78 34 162 147 116 108 86 45 31 44 1739 396 67 1343 329 265 1321
is_linear=0
shrinkage=0.05


Tree=23
num_leaves=31
num_cat=0
split_feature=7 6 5 0 6 0 0 0 3 3 1 2 3 5 0 2 4 4 5 5 0 6 7 6 4 7 6 4 2 3
split_gain=0.785894 0.740377 0.892004 0.519157 0.526476 0.514087 0.509237 0.832668 0.508984 0.465151 0.426576 0.603297 0.671684 0.537299 0.435592 0.70737 0.811087 0.755008 1.00005 0.789841 0.486127 0.607324 0.710424 0.683004 0.588674 0.670634 0.593419 0.679549 0.579818 0.655644
threshold=1.2500000000000002 1311.5000000000002 -74.157684999999987 0.67435000000000012 882.00000000000011 0.96070000000000011 0.98505000000000009 0.98850000000000005 1.3070000000000002 8.2990000000000013 1133.0000000000002 0.66350000000000009 6.2055000000000016 -74.032849999999982 0.13100000000000003 0.24950000000000003 40.547795000000001 40.634465000000013 -73.854229999999987 -73.792954999999992 0.4512500000000001 902.50000000000011 3.1500000000000008 691.50000000000011 40.855585000000012 3.4500000000000006 941.50000000000011 40.583415000000009 0.46800000000000003 7.8665000000000012
decision_type=2 2 2 2 2 2 2 2 2 2 2 2 2 2 2 2 2 2 2 2 2 2 2 2 2 2 2 2 2 2
left_child=3 5 -3 4 -1 10 -7 -8 -4 -10 14 12 13 -12 15 16 -2 19 -19 -17 -16 22 -22 -24 26 -26 -23 -28 29 -29
right_child=1 2 8 -5 -6 6 7 -9 9 -11 11 -13 -14 -15 20 17 -18 18 -20 -21 21 24 23 -25 25 -27 27 28 -30 -31
leaf_value=-0.011507889211992589 -0.035223804193077968 0.060814172904469478 0.060428330649047207 0.060446759970267265 0.066302075824236792 0.064846308220709248 -0.061787871185813387 0.063259677694108382 -0.0052615230061335925 0.042118646704878943 -0.04754050883502968 0.069363699633843534 0.055889723720220996 0.032055650029103093 -0.015624405363363604 0.077152094507913577 0.085977517907260048 -0.029585028455208558 0.058518371363402669 -0.016197901542749613 0.017166153205241515 -0.056386596105045809 -0.014869585572606633 0.027906180981430592 -0.0032351798595983321 0.085962922442499201 0.036509270159474631 0.019719292077936781 -0.039486838336817431 -0.047325376147465362
leaf_weight=0.83816335233859607 0.18659876892343064 0.91521910368464876 0.40293059055693348 0.84631043858826149 0.29352639405988157 0.53408913407474645 0.2887986246496439 0.24696969147771597 3.5819044802337885 0.60559396143071342 0.63025930302683253 0.44526954181492318 0.40878205234184861 0.31949488702230056 12.658051293576138 0.53811545844655484 0.53039482119493186 1.9888178657274695 0.3843334475532173 0.3914176216349009 5.4400291956844757 1.0240925104590122 5.3193315704120323 1.1317270331783218 0.97633165237493791 0.26872325199656188 0.57584622513968486 1.2154523321660238 2.0905923004611395 0.52094321185722936
leaf_count=45 8 46 23 47 30 40 6 18 162 39 22 39 32 21 574 43 53 79 33 18 293 25 244 72 46 21 44 76 79 22
internal_value=1.75141e-10 -0.00139781 0.0157415 0.0308254 0.00867368 -0.00387359 0.0302963 -0.0041455 0.00675513 0.00159057 -0.00486043 0.0188551 0.00230063 -0.0207646 -0.00607431 0.00941798 0.0544347 -0.000354886 -0.0153166 0.0378433 -0.00806892 -0.00291688 0.00385754 -0.00736531 -0.0149905 0.0160167 -0.0221043 -0.0141302 -0.02175 -0.000395056
internal_weight=45.5981 43.6201 5.50565 1.978 1.13169 38.1145 1.06986 0.535768 4.59043 4.1875 37.0446 1.80381 1.35854 0.949754 35.2408 4.01968 0.716994 3.30268 2.37315 0.929533 31.2211 18.5631 11.8911 6.45106 6.67198 1.24505 5.42693 4.40283 3.82699 1.7364
internal_count=2300 2178 270 122 75 1908 64 24 224 201 1844 114 75 43 1730 234 61 173 112 61 1496 922 609 316 313 67 246 221 177 98
is_linear=0
shrinkage=0.05


Tree=24
num_leaves=31
num_cat=0
split_feature=7 6 5 0 3 3 0 6 8 0 2 1 3 4 7 8 8 2 2 1 2 2 2 6 7 0 3 6 2 7
split_gain=0.727234 0.580758 0.907625 0.59239 0.51474 0.491983 0.484433 0.504839 0.415228 0.525653 0.410982 0.837985 0.777187 0.742619 1.01819 0.870617 0.69249 0.457515 0.624736 0.430683 0.400179 0.382028 0.71988 0.83459 0.75142 0.696176 0.598971 1.2026 0.592211 1.02938
threshold=1.2500000000000002 1311.5000000000002 -74.157684999999987 0.96070000000000011 1.3070000000000002 8.2990000000000013 0.67435000000000012 882.00000000000011 2.5000000000000004 0.98505000000000009 0.70850000000000002 1115.5000000000002 2.3910000000000005 40.820830000000008 4.2500000000000009 4.5000000000000009 1.5000000000000002 0.77250000000000008 0.78450000000000009 1024.0000000000002 0.75700000000000012 0.62850000000000017 0.51050000000000006 222.50000000000003 4.3500000000000005 0.015400000000000002 4.1220000000000008 775.50000000000011 0.58050000000000013 3.2500000000000004
decision_type=2 2 2 2 2 2 2 2 2 2 2 2 2 2 2 2 2 2 2 2 2 2 2 2 2 2 2 2 2 2
left_child=6 3 -3 10 -4 -6 7 -1 9 -5 21 12 -12 15 -15 16 20 -18 -19 -20 -14 22 25 -24 28 -2 27 -23 29 -25
right_child=1 2 4 8 5 -7 -8 -9 -10 -11 11 -13 13 14 -16 -17 17 18 19 -21 -22 26 23 24 -26 -27 -28 -29 -30 -31
leaf_value=-0.011745776647753427 0.076971088176877048 0.060125859059651371 0.059782618754975238 0.063983567575783565 -0.0076199448804704821 0.042148682735106649 0.059759795580903385 0.065354653722499031 0.064042495041549255 -0.040446302184574533 -0.022252811013661018 0.071668653976013935 0.072414056395517387 0.064254941108229505 -0.024890582056378875 -0.035344585145917894 0.08225704546013124 -0.051279112206534021 0.03648188557181202 -0.033670794846529462 -0.030059232158018086 0.073482676696154534 0.074461688786358587 0.070255275281817256 0.084857317128043674 -0.010598686178227117 -0.038626842057194619 -0.034038968766000342 -0.02371369044216956 -0.017685968370854673
leaf_weight=0.8039561811601732 0.22973908670247567 0.89085676777176548 0.38849649345502157 0.19950543297454604 3.4589885163586587 0.57980435388162721 0.8035522405989467 0.28850499843247235 0.5391278110910207 0.30429331446066499 2.6075605736696126 0.43799089081585485 0.10511343879625235 1.1590437602717427 0.44263454386964429 1.2664656584383918 0.32146371190901879 0.28115719300694797 1.8357700535561892 0.24838243657723058 1.0177549340296534 0.41625527839641951 0.50383647694252376 0.60405400581657953 0.27014744369080279 18.765573208744172 2.2375466198427603 0.69303997233510017 1.5237411188427357 0.74091712536755949
leaf_count=45 20 46 23 15 162 39 47 30 40 9 117 41 12 93 16 45 33 9 117 8 43 39 40 50 30 919 84 24 68 36
internal_value=-6.09015e-12 -0.00136518 0.0140781 -0.00359994 0.00481243 -0.000475219 0.030291 0.00861546 0.0335447 0.00090816 -0.00468482 0.00408418 0.000896212 0.00993551 0.039619 0.000569401 0.0125085 0.0262896 0.0186832 0.0281213 -0.0204665 -0.00796611 -0.00563504 0.0147257 0.00513709 -0.00953957 -0.0237335 0.00630778 -0.00237019 0.0218102
internal_weight=43.9653 42.0693 5.31815 36.7511 4.42729 4.03879 1.89601 1.09246 1.04293 0.503799 35.7082 9.72334 9.28535 6.67779 1.60168 5.07611 3.80964 2.68677 2.36531 2.08415 1.12287 25.9849 22.638 3.6427 3.13886 18.9953 3.34684 1.1093 2.86871 1.34497
internal_count=2300 2178 270 1908 224 201 122 75 64 24 1844 534 493 376 109 267 222 167 134 125 55 1310 1163 224 184 939 147 63 154 86
is_linear=0
shrinkage=0.05


Tree=25
num_leaves=31
num_cat=0
split_feature=7 6 5 0 3 0 6 3 0 7 8 0 2 2 3 0 0 7 2 4 7 1 3 7 1 4 6 3 3 6
split_gain=0.665488 0.547352 0.857215 0.62364 0.467732 0.449738 0.494958 0.445166 0.386122 0.381285 0.372569 0.461005 0.367798 0.732847 0.789305 0.622917 0.637214 0.616872 0.568641 0.839757 0.868319 0.684703 0.582047 0.635681 0.946243 0.632044 0.524461 0.479562 0.654844 0.51064
threshold=1.2500000000000002 1311.5000000000002 -74.157684999999987 0.96070000000000011 1.3070000000000002 0.67435000000000012 882.00000000000011 8.2990000000000013 0.41835000000000006 2.1500000000000008 2.5000000000000004 0.98505000000000009 0.51050000000000006 0.59250000000000014 2.3910000000000005 0.015400000000000002 0.82100000000000006 4.8500000000000005 0.67650000000000021 40.857530000000004 4.2500000000000009 1115.5000000000002 1.8125000000000002 2.8500000000000001 191.50000000000003 40.686935000000013 902.50000000000011 4.551000000000001 2.9820000000000007 115.50000000000001
decision_type=2 2 2 2 2 2 2 2 2 2 2 2 2 2 2 2 2 2 2 2 2 2 2 2 2 2 2 2 2 2
left_child=5 3 -3 12 -4 6 8 -6 -1 -9 11 -5 15 14 -14 -2 -17 18 -15 21 -21 22 -20 25 -25 -24 -16 28 -18 -29
right_child=1 2 4 10 7 -7 -8 9 -10 -11 -12 -13 13 17 26 16 27 -19 19 20 -22 -23 23 24 -26 -27 -28 29 -30 -31
leaf_value=0.021351270946954562 0.074489285217885212 0.059461068120509455 0.059071058639770115 0.063133684607498214 -0.0071977155491435504 0.059085316040735629 0.064780857638896405 -0.033289726267868684 -0.048211141787798208 0.064281837485487214 0.062878377444495079 -0.037077633799435614 -0.023174792558830509 -0.02164794268672238 0.067022418952266002 -0.014200542081272373 0.029720059823632402 0.055720706489150576 -0.034194146290630625 0.059479066086038673 -0.015386671298568858 0.070812336554388941 0.0018950476804273056 0.077064972194393261 -0.020148510367412137 0.058246009781841961 0.00038552804567792623 -0.029862630939403795 -0.038339486974960056 0.056058467197073393
leaf_weight=0.42337985755875596 0.21819612279068934 0.86077122669666994 0.36252053594216604 0.18998203799128421 3.338565078331158 0.75340925622731436 0.29034727718681097 0.13116795336827625 0.37723059160634875 0.42306595947593451 0.55023715971037745 0.2898760698735714 0.52659708011196826 3.7334576079156223 1.0475304842111652 15.768877134891229 0.67396945925429397 0.43108778796158809 1.6866219898220132 1.1043450117576856 0.59650540002621699 0.28436933155171562 1.5657603510189804 0.26898809522390399 3.6061290290672332 0.72941586980596174 0.41117243736516673 0.21743740979582049 0.74311173695605248 0.84469003835693002
leaf_count=31 20 46 23 15 162 47 30 6 14 33 40 9 27 160 92 758 46 37 70 92 24 30 89 21 170 60 33 9 31 75
internal_value=1.02843e-12 -0.00133427 0.0139551 -0.00353843 0.00475013 0.0293745 0.00885637 -0.000308552 -0.0114251 0.04119 0.0347971 0.00259732 -0.00468443 0.000866511 0.0292967 -0.00949161 -0.0104958 -0.00316317 -0.00503301 0.0012696 0.0332229 -0.00540597 -0.00816458 -0.00104951 -0.0134005 0.0198036 0.0482391 0.0130681 -0.0059701 0.0384688
internal_weight=42.4488 40.6044 5.11609 35.4884 4.25532 1.84437 1.09096 3.8928 0.80061 0.554234 1.0301 0.479858 34.4583 15.992 1.9853 18.4663 18.2481 14.0067 13.5756 9.84214 1.70085 8.14128 7.85692 6.17029 3.87512 2.29518 1.4587 2.47921 1.41708 1.06213
internal_count=2300 2178 270 1908 224 122 75 201 45 39 64 24 1844 905 152 939 919 753 716 556 116 440 410 340 191 149 125 161 77 84
is_linear=0
shrinkage=0.05


Tree=26
num_leaves=31
num_cat=0
split_feature=0 6 5 7 4 3 3 3 5 4 5 4 4 2 2 5 7 4 0 0 7 3 3 6 6 4 4 6 4 3
split_gain=0.631146 0.617751 0.899908 0.561371 0.594637 0.546477 0.424035 0.526653 0.559002 0.644364 0.525169 0.645332 0.373098 0.370219 0.683843 0.764048 0.623023 0.568592 0.549607 0.559556 0.504122 0.455312 0.515936 0.542187 0.475811 0.447131 0.557597 0.384054 0.383576 0.374114
threshold=0.96070000000000011 1311.5000000000002 -74.140684999999976 1.3500000000000003 40.836410000000008 0.33850000000000008 1.3070000000000002 2.6805000000000003 -73.887104999999977 40.563930000000006 -73.91146999999998 40.710725000000004 40.831955000000008 0.51050000000000006 0.58850000000000013 -73.856674999999981 4.8500000000000005 40.866835000000002 0.015400000000000002 0.82100000000000006 3.3500000000000001 4.551000000000001 2.9820000000000007 918.50000000000011 115.50000000000001 40.93124000000001 40.888955000000003 70.500000000000014 40.91960000000001 1.8125000000000002
decision_type=2 2 2 2 2 2 2 2 2 2 2 2 2 2 2 2 2 2 2 2 2 2 2 2 2 2 2 2 2 2
left_child=1 3 -3 4 5 -1 -4 -8 10 -10 11 -9 -2 18 15 -15 17 29 -5 27 28 22 23 -21 -23 26 -22 -20 -19 -16
right_child=12 2 6 13 -6 -7 7 8 9 -11 -12 -13 -14 14 16 -17 -18 20 19 21 25 24 -24 -25 -26 -27 -28 -29 -30 -31
leaf_value=-0.049633159851204561 0.050106613899565756 0.059392696311373928 0.058450615778400966 0.072333411563184513 -0.01117632559235048 0.053722129595020221 -0.038208352594955579 0.069966867630468207 -0.038837071722989086 0.058164362870929867 -0.060860979700970624 -0.012764319477253356 -0.006193426865966173 0.055472704332587421 -0.028879981433514501 -0.011293000892825292 0.052942053842802754 0.074369587885291619 -0.048209334003536615 0.069194804182248895 0.043356624004478109 -0.03014921108823997 -0.038099582467916615 -0.023612025250355682 0.053220443703598665 0.062318901161370649 -0.042788305981824648 -0.01273669331927081 0.014460336799628624 -0.0054839636562389396
leaf_weight=0.14365855604410116 0.97214168496429809 0.94622476305812586 0.33674375340342466 0.19986329670064407 0.85801802435889829 1.1653767735697327 0.72506856825202737 0.30802844208665248 0.2152558597736054 0.83658229047432542 0.36898633977398287 1.0040335967205463 0.42201416194438934 1.1011150893173178 2.1280206937226422 0.7014901468064626 0.47513579088263291 0.49911922612227611 0.80705679766834038 0.32734387135133081 0.25712369545362868 0.21537271980196215 0.68520791409537196 0.30308051663450897 0.83336284069810063 0.2019295203499496 0.6971841286867857 13.989194609894183 0.57495415315497667 8.6709949499927443
leaf_count=5 67 54 23 20 42 101 28 26 10 67 10 48 27 104 99 36 37 50 29 31 20 9 30 12 75 12 23 705 33 467
internal_value=1.10108e-10 -0.00116479 0.0157683 -0.00346935 0.0211747 0.0423795 0.00489042 -0.000325394 0.00972542 0.0383133 -0.0081621 0.00665821 0.0330645 -0.00510416 0.000564444 0.0294906 -0.00329668 -0.00534752 -0.0101023 -0.0110624 0.0176361 0.0115239 -0.00806607 0.0245773 0.0360993 -0.00527512 -0.0195779 -0.0146715 0.0423 -0.0100943
internal_weight=40.9697 39.5755 4.74092 34.8346 2.16705 1.30904 3.7947 3.45796 2.73289 1.05184 1.68105 1.31206 1.39416 32.6675 15.3071 1.80261 13.5045 13.0293 17.3605 17.1606 2.23031 2.36437 1.31563 0.630424 1.04874 1.15624 0.954308 14.7963 1.07407 10.799
internal_count=2300 2206 266 1940 148 106 212 189 161 77 84 74 94 1792 881 140 741 704 911 891 138 157 73 43 84 55 43 734 83 566
is_linear=0
shrinkage=0.05


Tree=27
num_leaves=31
num_cat=0
split_feature=7 6 5 0 3 0 6 3 3 6 4 5 6 0 8 7 7 4 1 3 3 4 5 5 0 3 0 5 5 7
split_gain=0.533094 0.488065 0.77793 0.544371 0.396172 0.391204 0.413454 0.350731 0.344066 0.32617 0.563 0.727513 0.958608 0.521161 0.573231 0.563807 0.5958 0.52652 0.433983 0.402236 0.657614 0.633835 0.385867 0.739695 0.499981 0.518587 0.41795 0.40941 0.423854 0.502676
threshold=1.2500000000000002 1311.5000000000002 -74.157684999999987 0.96070000000000011 1.3070000000000002 0.67435000000000012 882.00000000000011 8.2990000000000013 9.8350000000000026 763.50000000000011 40.577215000000002 -73.792954999999992 938.00000000000011 0.72770000000000012 3.5000000000000004 3.1500000000000008 4.1500000000000012 40.936090000000007 1178.5000000000002 1.2200000000000004 0.58300000000000007 40.81125500000001 -74.055929999999975 -74.025734999999983 0.13430000000000003 6.5605000000000002 0.24050000000000002 -74.07850999999998 -74.109634999999983 1.6500000000000001
decision_type=2 2 2 2 2 2 2 2 2 2 2 2 2 2 2 2 2 2 2 2 2 2 2 2 2 2 2 2 2 2
left_child=5 3 -3 9 -4 6 -1 -6 -9 13 11 12 -11 17 -15 -16 -17 18 19 20 21 -2 27 -24 25 -25 -26 28 -12 -30
right_child=1 2 4 -5 7 -7 -8 8 -10 10 22 -13 -14 14 15 16 -18 -19 -20 -21 -22 -23 23 24 26 -27 -28 -29 29 -31
leaf_value=-0.010824397396070448 -0.028495917582844157 0.058324599302344363 0.057979289063110333 0.033857203493420779 -0.0064291894730152789 0.058130445520421625 0.062922041480595589 0.063568983059723791 -0.031805450912812519 -0.014928471170450439 -0.022918247169041835 -0.034928190738165568 0.070942035439825621 0.031624160054428495 0.042469946106733519 -0.043083645669198853 0.041912680414714076 0.060414571734764812 0.067659207207987446 -0.0099364798795208743 0.067104399783319654 0.076792203739606255 0.050093967472306815 0.081443209748784134 -0.045284294136572513 -0.0084393150620260208 -0.0098774987575102283 -0.053992693888857614 -0.043700477856420637 0.076929703760842766
leaf_weight=0.73724911018507444 0.6886445793788869 0.81353103695437301 0.31890727533027474 0.95535375294275482 3.0900024500442673 0.64778603799641132 0.25607068208046257 0.36635339143685985 0.12746251141652465 0.55747059581335612 3.5842743521789089 0.51258109614718605 0.77940066123846918 2.3757040485506868 0.42707209708169092 0.93830224731937029 0.26423919526860118 0.3053845881950118 0.19721568608656603 12.060274051793384 0.4635491797234863 0.18038333300501108 0.5315741285448875 0.28391271282453168 0.98327772715128947 0.36910725897178054 5.4706965010263957 0.96283331140875716 0.13569831708446178 0.23752734018489718
leaf_count=45 26 46 23 64 162 47 30 35 4 35 180 20 74 168 40 34 21 26 15 659 39 15 37 35 35 20 309 25 6 25
internal_value=-9.15237e-11 -0.00120557 0.0138473 -0.00333977 0.00457591 0.0279009 0.0081869 -0.000176209 0.0389512 -0.00443965 -0.0100393 0.0157163 0.0351343 6.74829e-05 0.015958 -0.00688064 -0.0244071 -0.00451291 -0.0059719 -0.00705615 0.0190118 -0.00664136 -0.0138321 -0.00679806 -0.0110533 0.0306388 -0.0152718 -0.0247521 -0.017638 0.0330707
internal_weight=39.6218 37.9807 4.71626 33.2645 3.90273 1.64111 0.99332 3.58382 0.493816 32.3091 14.4084 1.84945 1.33687 17.9008 4.00532 1.62961 1.20254 13.8955 13.5901 13.3929 1.33258 0.869028 12.5589 7.63857 7.10699 0.65302 6.45397 4.92033 3.9575 0.373226
internal_count=2300 2178 270 1908 224 122 75 201 39 1844 801 129 109 1043 263 95 55 780 754 739 80 41 672 436 399 55 344 236 211 31
is_linear=0
shrinkage=0.05


Tree=28
num_leaves=31
num_cat=0
split_feature=7 6 5 0 6 0 3 8 0 3 7 0 1 1 3 2 1 1 3 8 2 7 3 4 4 0 0 3 2 4
split_gain=0.475173 0.422954 0.720581 0.464125 0.380915 0.418454 0.359985 0.322366 0.425004 0.292105 0.521584 0.273714 0.400432 0.272149 0.448456 0.469151 0.364507 0.682119 0.438626 0.356188 0.707395 0.613653 0.398256 0.372466 0.744644 0.340361 0.581702 0.408303 0.63846 0.610992
threshold=1.2500000000000002 1311.5000000000002 -74.157684999999987 0.96070000000000011 882.00000000000011 0.67435000000000012 1.3070000000000002 2.5000000000000004 0.98505000000000009 8.2990000000000013 1.5500000000000003 0.41835000000000006 858.00000000000011 1133.0000000000002 7.2410000000000005 0.6665000000000002 1009.5000000000001 984.50000000000011 0.42400000000000004 2.5000000000000004 0.58050000000000013 2.0500000000000003 2.2445000000000008 40.641675000000006 40.524940000000008 0.91850000000000009 0.90470000000000017 6.5330000000000004 0.78450000000000009 40.705545000000008
decision_type=2 2 2 2 2 2 2 2 2 2 2 2 2 2 2 2 2 2 2 2 2 2 2 2 2 2 2 2 2 2
left_child=4 3 -3 13 5 11 -4 8 -5 -8 -11 12 -1 16 15 -15 17 25 -18 23 21 -21 -23 24 -20 26 27 -2 -29 -30
right_child=1 2 6 7 -6 -7 9 -9 -10 10 -12 -13 -14 14 -16 -17 18 -19 19 20 -22 22 -24 -25 -26 -27 -28 28 29 -31
leaf_value=0.071300245863841469 0.0017085829644905176 0.057721407645089984 0.057423343624243395 0.060913227768494851 0.059498353001224816 0.057990679349866125 -0.0062221200714987256 0.060988157482419203 -0.038309527079094949 -0.059562726869249072 0.06198741116713577 -0.046627470408896178 -0.031715844925324574 -0.013950622913252567 0.069690972635604809 0.06381615140496584 0.083597958607667819 0.072693670284481329 -0.069929938764351871 -0.021321797020606062 -0.03344549384292643 -0.01068198987353397 0.088550171158206667 -0.051146974481433516 0.072872087106926914 -0.026512987571927341 0.066255803793797433 -0.018447236557877937 -0.0088833293583913849 0.051671800746190259
leaf_weight=0.17582870856858679 14.914225506247041 0.75569656281732012 0.29343644389882628 0.18069816171191533 0.57131960801780224 0.2976789940148592 2.9768985696136956 0.46734226285479963 0.26796329137869179 0.11369382846169163 0.39449414191767573 0.32241089956369251 0.20351998368278146 0.92004350421484449 0.31486460217274714 0.24573874776251614 0.10073066595941726 0.29374026751611282 0.17239452525973353 0.40106990304775569 1.2088094429927876 0.13921369554009289 0.36942088499199599 1.3510771554429082 0.19404176087118685 1.567223620135336 0.30404328485019405 7.1396212312392873 1.0400657713180406 0.69485053978860367
leaf_count=20 916 46 23 15 51 26 162 40 9 4 35 14 11 52 33 29 8 36 3 16 52 9 40 47 23 65 24 370 56 65
internal_value=1.87697e-10 -0.00114889 0.0131509 -0.00315707 0.0269321 0.00831589 0.0042369 0.0319253 0.00165238 -0.000241275 0.0347937 -0.0127556 0.0160323 -0.00418144 0.0167428 0.00244207 -0.00521793 -0.0030675 -0.019395 -0.0220995 -0.00838114 0.0249242 0.0613902 -0.0390208 0.00568909 -0.00393477 -0.00246607 -0.0033444 -0.0118363 0.0153696
internal_weight=38.3922 36.8214 4.53422 32.2872 1.57076 0.999439 3.77852 0.916004 0.448661 3.48509 0.508188 0.70176 0.379349 31.3712 1.48065 1.16578 29.8905 25.9538 3.93676 3.83603 2.11851 0.909704 0.508635 1.71751 0.366436 25.66 24.0928 23.7888 8.87454 1.73492
